170 128
14 -0.00041892752 0.00018471107 0.003986992 0.0070384946 -0.0072679296 -0.005560007 0.0050459933 0.007010147 -0.003918303 -0.002940135 0.005766019 -0.0011980254 -0.00354423 0.005120352 -0.0037970003 -0.0014187638 0.002247328 0.00077490136 -0.006472824 -0.00738189 0.0057123173 0.003961142 0.005279448 0.0005959887 0.004961632 -0.0026604421 -0.000739377 0.004506698 -0.0058762804 -0.0030750819 -0.0058684237 -0.0007265955 0.0074516553 -0.005718099 -0.0018232577 -0.0015138611 0.0063104965 -0.0046335123 3.5282224e-05 -0.0037138555 -0.007502774 0.003911948 -0.006843427 -0.0034311134 -2.7421862e-05 -0.00023139268 -0.005985344 0.007511517 0.0038922317 0.007213393 -0.006373374 0.0035123415 -0.0032320917 0.0006441679 0.006639546 -0.0034860764 0.0035292972 -0.0053023137 -0.0027722567 0.0073425844 -0.0012325421 0.00025107153 -0.003234867 -0.0060021 -0.0011781324 0.0019295271 -0.000693772 0.0043231733 -0.002142951 0.0017656758 0.0042623393 0.006520275 -0.0011357348 -0.0071938615 0.003414493 0.000446707 0.00581399 -0.00063537806 -0.0020612609 -0.006838288 -0.0006691851 0.0022082515 0.0042198654 0.005509887 -0.0044555645 0.001452202 0.0047569238 -0.0037484784 -0.0024275482 0.005310647 0.0012745894 0.00014837272 0.002713779 0.00017013773 0.0075147077 0.0039535966 -0.006966712 -0.00550122 0.0007042624 0.004994167 -0.006734131 0.002863858 0.0040545966 0.0044858884 0.005833529 -0.004818497 0.0008637607 0.0047244392 -0.0022187904 -0.0048230644 -0.00032048672 -0.006538242 -0.0043750107 0.00555042 0.0026191715 0.0056450535 0.0053126924 0.005883392 -0.0029602777 -0.00043891184 0.0018346682 -0.0035304949 0.0065536965 -0.0077016912 0.0052848756 0.0022768881 -0.0038537756 0.003436083
152 -0.0013590436 0.005243268 0.007785039 -0.00340816 -0.0004682336 -0.0044497177 0.003008455 0.0021770522 0.0053836536 0.004766481 0.0074519496 0.007244857 0.006170366 -0.005460551 -0.0071530193 -0.00027793273 -0.0024217516 0.006167434 0.00463951 -0.0012075491 0.0011804402 0.0013984684 0.0061074775 -0.0074298345 -0.00016057119 0.0027103089 -0.000733573 0.0065482594 0.0070396736 0.0051066447 -0.0005559549 0.0060237534 -0.00666745 0.002505552 -0.0036234353 -0.003975747 0.0028043892 0.0041955765 0.006069932 -0.004505083 0.005807312 0.005176168 -0.0028982814 -0.0068325326 0.004248021 0.005085746 -0.00061527453 -0.005242076 -0.00553588 -0.0019508284 0.004018167 -0.0028634667 -0.0073203593 0.0029896405 0.0038159993 -0.0050223153 0.000944186 -0.0016209986 1.9064173e-05 -0.007721491 0.0021031275 -0.0037110206 0.0008497238 -0.0012314264 0.00171615 -0.006157482 -0.0021228008 0.002080623 0.0041770954 -0.0018683709 -0.007429762 0.0035202168 7.3878095e-05 0.0024041552 -0.00532238 -0.0010745823 0.005991079 0.0057393815 -0.0028697643 0.00206461 -0.0064977575 0.004848035 -0.0036229081 -0.0024719592 0.0072744973 0.0006823316 0.0058521107 -0.0047453623 0.004031645 0.0077522043 -0.006607337 -0.0040122587 -0.005519405 -0.0037989467 -0.0029520039 -0.0066689067 0.006215317 -0.0037843268 0.006580947 0.004111383 -0.0051172078 0.003092086 0.0042735543 -0.0058019813 -0.0057857186 -0.001933774 -0.006738849 -0.0012356043 -0.0003151819 0.0025778785 0.0011264682 -0.0006886106 -0.004370358 0.0013518482 -0.0007010717 0.00530757 0.0031043664 0.0035386495 0.0011205506 -0.002109263 -0.0034115724 -0.0008063093 0.0011226777 -0.0020671953 -0.0055263937 -0.006097896 -0.0071263965 -0.004636852
19 -0.0014433004 -0.0033780243 -0.0050473996 -0.002904158 0.0033509042 -0.0029211286 0.0065454487 0.0011984315 -0.005658062 0.0073701553 0.005961884 0.0042916257 -0.0053506605 0.004548967 0.003132103 0.004051069 0.0033249222 0.0015154332 -0.0024766903 0.0065264404 0.0075095147 0.002962971 -0.0022164024 5.5674464e-06 0.00095220096 -0.006608067 -0.006424958 -0.000180481 0.0009666309 -0.004487017 -0.0036916211 -0.0057391208 0.00650673 9.4763935e-05 -0.003522968 0.0044544563 0.007171886 -0.003203025 0.0062224064 0.004199557 0.004593065 0.00040046126 0.0064164717 -0.0054836255 -0.0064395927 0.0072651207 -0.0001544226 -0.0015369356 0.0035965852 -0.0031994656 0.002143057 0.005421849 0.004738614 -0.005867809 0.0073299613 0.0036498494 0.0030985307 -0.0048777387 0.006609358 -0.0016798172 0.006894678 -0.0041890647 -0.0063511096 0.0053316858 0.0013056193 -0.0017175861 0.0074325 0.0074170735 -0.0076359753 0.0019572098 0.004809916 0.0030253567 0.0015803017 0.00033632852 0.0005262736 -0.002984872 -0.0055783205 -0.0016319323 0.003065545 0.0068895966 0.007233711 -0.0046687014 -0.0073458366 0.0076284185 0.0026795194 0.004036028 0.004908081 -0.0021908302 0.0057208613 0.0022111498 0.0022429712 -0.0018596649 -0.002443945 -0.0018516742 0.0033409651 5.9420243e-05 -0.007487718 -0.0075512063 -0.0048032776 -0.000100445 0.0015604813 0.007368725 0.004362773 -0.0033521075 0.00021743402 0.0038784053 0.0060143042 -0.0008939244 0.0033776723 -0.004542485 -0.00062827393 0.0063281637 -0.0018438008 -0.0075495746 0.0045150463 -0.0030701738 -0.0009553693 0.0077972785 -0.0017627738 -0.0037164576 -0.0041635837 0.0054538194 -0.0044600572 0.0016512983 -0.004105985 0.004781807 0.003404146 0.0020362139
6 -0.0011649095 -0.002145363 0.0070257317 0.004074823 -0.0016894694 -0.00739868 -0.005801603 -0.00083104894 -0.00062105246 -0.0020022728 0.007564625 -0.0003582202 0.004588876 -0.0058184285 -0.001957871 -0.004335832 -0.0055773556 0.0009695552 -0.0056068096 -0.0017536078 0.002905706 0.004557127 0.00093607977 0.001642758 -0.003211243 0.005644791 -0.0049273763 0.0036306363 -0.0064218547 0.0015909895 -0.003888322 -0.0033185072 -0.0024288949 0.004418131 0.0045299996 -0.0038864445 0.00060416386 -0.0066373274 0.006101411 0.007232258 -0.0021424443 0.0006251745 0.00058332086 0.0042795967 -0.006723499 0.0004566051 0.005366735 0.0017434321 0.00087865256 -0.007282935 0.006626848 -0.0048938505 -0.002337793 0.0027295202 -0.00060361624 0.0011025704 0.0013921801 -0.0053350776 -0.00759751 0.0070629567 0.004842229 -0.0054007247 0.0026589707 0.00016098656 0.003713863 -0.0055624563 0.003146058 0.0033964328 0.007779194 -0.0034951102 -0.0010853633 -0.0057166573 -0.00757643 -0.007093951 -0.0007990282 -0.005080696 0.0037888493 -0.0048156455 0.0019681137 0.0005776882 -0.0026501212 -0.00076501817 0.0077961907 0.007145224 -0.0034858044 0.0070961136 -0.0044076275 0.004633533 -0.0024197027 0.002681056 0.0023572072 0.005390985 -0.0018545967 0.006855497 0.005929241 -0.0074590985 -0.0062564146 -0.0059671067 0.0022837948 -0.0021833777 -0.0054136887 -0.006350206 0.0064915456 0.0015550684 -0.0072875135 -0.0037443098 0.002450576 -0.0036821924 0.0041256584 -0.003307376 0.002063902 -0.0062856935 0.0048514735 0.003764756 0.0006149933 0.002354255 -0.0068183467 0.0016641878 -0.0006824564 -0.007280538 -0.007365737 -0.0011021234 0.0034628194 0.0028938055 -0.005077105 -0.005369585 -0.0039057918 -0.0017865971
22 -0.005664287 -0.007502593 -0.0021434613 -0.00653347 -0.0047178715 -0.0044304132 -0.0018313583 -0.0013335925 -0.006997656 -0.0005743746 0.0063691456 0.006008148 -0.005629778 -0.0028647128 0.0024363678 -0.007477127 0.0011534672 0.0050972383 0.00448939 -0.006846143 -0.0035290197 -0.006359501 3.5902485e-05 0.0072372127 0.004666645 0.0039588343 0.003953954 -0.002533529 0.007462643 -0.0057472065 -0.005679991 -0.0017698351 -0.0006082505 -0.0025125816 -0.0004629586 0.005850643 -0.0005449373 -0.0012694858 0.002144061 -0.0065305475 0.006137347 0.0066688303 -0.007487569 0.0019111447 0.0077382587 -0.005988909 -0.005442906 -0.006044155 0.006559314 -0.0005322937 0.0071440693 -0.0063736103 0.002924284 0.002058627 0.00058024377 0.0018184967 -0.0058352295 -0.0073112305 0.001839513 0.0048034806 0.006238818 0.0044811666 -0.00060729496 0.006489191 -0.0072939955 0.00266104 0.00020840019 0.0030134711 0.005770143 -0.0052540377 0.0043628756 -0.007439239 -0.0006284844 -0.006788077 -0.0039833393 0.007257208 -0.001451768 0.0022768956 0.0070869364 0.006982915 -0.0064128395 -0.0023533702 0.0077239107 0.0039878357 -0.001240693 -0.0067906417 0.0023136847 -0.005215546 0.0063533373 -0.0034822933 -0.000834655 0.0007862225 -0.00014930777 0.00089701265 0.0047764536 -1.5838072e-05 -0.0025359113 -0.0011802576 0.004607264 0.0011828914 -0.0005658306 0.0072915982 -0.003844753 -0.0006550085 0.0071682893 0.00527299 0.0011741053 -0.0069395006 0.0008974578 -0.0017876998 0.0073189344 0.00094525516 0.0011641122 0.0018800069 -0.0014343802 -0.003905965 0.00018158555 -0.0015735794 0.005156979 0.0069844704 -0.0005271528 0.0023257919 -0.004771605 0.0013275966 -0.00541112 -0.006792208 -0.0046095345 -0.0069972463
124 0.00568562 -0.0045094006 0.006465899 -0.0056590196 0.0026731826 0.0075585917 -0.006082382 -0.007769577 -0.0033821464 -0.0020961966 -0.0002119448 -0.0068996493 -0.0067324676 0.0021876637 -0.0064112563 -0.00708542 -0.0018284898 -0.0067436006 -0.0055130087 -0.006563399 -0.00023541413 -0.003565859 0.0051774792 0.0011930931 -0.0026105288 0.0047726333 -0.00469788 -0.0036376324 -0.0056308676 -0.003387954 -0.001413539 0.0050700326 -0.0021643694 0.0038429424 0.0053940956 -0.00583102 0.0035662893 0.004786702 -0.0023081843 0.0051757973 0.004785843 -0.0050339736 -0.0052848067 0.0019835606 -0.0012686085 -0.004738381 0.007421257 -0.004007928 -0.005120389 -9.366125e-05 -0.0021104906 0.00034718774 -0.0027636401 -0.00032760203 -0.0005536061 0.00064282864 0.0064022 -0.0044818036 -0.0012965072 0.0043528173 0.006381344 -0.0034711193 0.00701987 0.0064481758 -0.0034650173 0.00023679994 0.0033394452 -0.0030674376 -0.004343724 -0.005087752 -0.00052401423 -0.00023118965 0.0034867842 -0.0019328557 -0.00013485178 0.0019233394 0.0038028117 -2.40691e-05 -0.0049526636 -0.0072350055 2.0826235e-05 0.005204605 0.0011453293 -0.0070050955 -0.0062020347 0.0051186737 -0.0029575638 0.004886713 -0.0052195564 0.006624736 -0.0050908793 0.0025687646 -0.0008257702 -0.005302757 -0.002568435 -0.00090735406 -0.0042741727 -0.0009463653 -0.0059088394 0.002067702 0.0070860535 -0.0018572267 -0.0007628985 0.002744969 0.0067695994 -0.0046264473 -0.005380921 -0.0022913944 0.007146638 0.0006767716 -0.0067800004 -0.0011304524 0.0074058324 -0.005898038 -0.0041860156 0.0072785635 -0.0070107244 0.0029889904 0.00051987544 0.0052036718 0.0064943377 -0.002227176 -0.0031189956 0.006951498 0.0016325358 0.0048819855 -0.007379465 0.0074922834
92 -0.0010533668 -0.004728215 0.0023379177 -0.0003567282 0.0036769472 -0.0017836113 -0.0032326896 0.0017796084 0.0065268613 -0.0039028171 0.0020849053 -0.0062426217 -0.005291678 -0.00036536716 -0.006849788 0.0021792483 0.0012489017 -0.0018122606 0.0039092116 0.0076162387 0.006604897 -0.0014689267 0.0016079303 -0.0031278823 -0.006438598 0.004904652 -0.0015227981 -0.00052047335 -0.0013838541 -0.0035434887 0.0031732097 -0.0033360794 -0.00748324 0.006986808 0.0032539591 0.0072146356 0.0051902365 0.0022849496 0.0076593906 -0.003456751 -0.0053150877 0.0033026412 0.0029132813 -0.0044254772 0.007581843 -0.002779927 0.007460473 0.00065212883 -0.0049519204 -0.0015446227 -0.005763324 -0.0023277532 0.00081382506 0.007408349 0.007309256 -0.00515303 0.0027149618 0.0017777886 -0.0019448064 -0.007210292 0.00080244243 -0.006379459 0.004937647 -0.0045313127 0.004324561 0.0076825954 -0.00012500025 0.003537884 -0.0014135949 0.0057505947 0.0030782 -0.007039316 -0.0018738322 0.0028349757 -7.778779e-05 -0.00093849376 -0.00082456134 -0.0013059396 0.00047261827 0.0032539796 -0.0033224933 -0.002995018 -4.1263178e-05 0.0002104342 -0.00013188086 -0.0037386771 0.0033698454 -0.001696812 0.0016433895 0.0005207211 0.00466381 -0.005345611 -0.0053247735 -0.0034970772 0.0073717404 -0.0012436584 -0.007366596 -0.00042581372 -0.003475722 0.0046875607 -0.007487254 0.0022335947 -0.007228775 0.00097640604 0.0046868734 0.005779177 -0.0059542693 -0.0047289245 -0.005342532 -0.006186204 -0.0074211564 -0.0016605444 -0.0006530732 -0.0056689084 0.0053023715 0.0008747019 0.0045538023 0.001150677 0.000616692 -0.005756352 -0.0017005149 0.0033758432 -0.003972903 0.0008834284 0.0022526272 -0.001200283 0.0077596046 0.006523151
17 0.0018872395 0.0055611283 0.0046026856 -0.004359858 -0.0040283147 -0.0052096397 -0.0060756523 0.0064927563 -0.0015487056 -0.00535544 -0.0032456163 0.0040188488 -0.0022415128 -0.002929423 0.0012667384 -0.0021689795 -0.0012377817 0.00083944574 -0.0023265202 0.0066556893 0.003055418 -0.007780362 0.0048903115 -0.005276762 0.00060111843 0.0034408085 -0.0039870124 -0.0016489606 0.006324593 -0.0033154637 -0.005965829 0.0072327442 -0.0016839821 -0.0036870576 0.0066959374 0.0033463575 0.0033787787 0.007253526 -0.0066039693 0.004105719 0.0015932433 0.0032720938 0.0013264846 0.0034876037 0.0035049133 0.0047691576 -0.0025016386 -0.0035747886 -0.00033321604 0.0019794796 -0.0025493503 0.004732592 0.0032454133 0.0060660876 0.0020072442 0.0063411575 -0.0010837577 0.00631088 0.0029039178 -0.006286973 -0.0030731373 -0.0019311551 0.0038226899 -0.0006813742 -0.002211647 0.006120084 0.007283516 -0.0012616627 -0.0040306635 -0.0036732499 -0.0037859771 -0.0075022075 0.0010718908 -0.0033007152 0.0019739904 0.004386315 -0.0031764898 -0.0074973293 0.0012083575 -0.0052344706 0.001949355 -0.0029536188 0.0055300165 0.0005001724 0.0027819835 -0.0021399483 -0.0013363659 0.0059787445 0.0010997485 -0.004570663 -0.0061207004 0.000963036 0.0050426796 0.0043408982 -0.007013321 0.0067126285 0.0031617004 0.005835628 0.007614324 -0.0056949854 -0.0070624705 0.0045593753 0.0073368847 0.0027397852 0.0055381227 -0.0012249462 0.0062089823 -0.007413015 -0.006273046 -0.005187791 -0.0031276997 0.0038978253 -0.0029793438 -0.0064999256 0.006571701 -0.0029273462 0.006725544 -0.0038248058 0.0030614007 0.0038453247 0.0018692259 -0.0022021905 0.0022258777 -0.0064501856 -0.002160579 -0.0020243432 0.005663285 -0.0027057845
67 -0.005156018 0.0033909585 -0.00037069246 -0.0028105918 0.0053769313 0.003025243 -0.0030470323 0.00060303695 0.0071433615 0.006058324 0.0049702115 0.003646329 0.0018628817 -0.0014387704 -0.0049775727 -0.00023579039 -0.0012229607 -0.00044709817 -0.004892869 0.0058078486 -0.0051496048 -0.0056556854 -0.0021540206 -0.0011839066 -0.005965404 0.00054549985 -0.0041610245 -0.0009965189 -0.005753994 0.0015316941 0.0025571864 -1.8076971e-05 -0.0042565297 -0.0013485048 0.0055350903 0.0029189512 -0.0069383197 -0.0026668366 0.0018391423 0.001670327 -0.007393757 0.0035712235 -0.0067632794 -0.005771147 0.0027211811 -0.0027116872 0.002784742 0.0069485083 -0.0027924404 0.007281581 0.0013367478 0.007693574 0.004457064 -0.007148035 -0.0025997907 0.0051016994 0.0043771714 0.0068011843 0.0054110177 0.006280381 -0.0076742265 0.0033584572 -0.0039297473 0.0027440507 0.0047317874 0.0034313519 0.005869031 0.0011700895 -0.0009882357 0.004506562 -0.004405912 3.0148774e-05 0.0073879585 -0.004282227 0.0029799044 -0.0063382983 0.0076330416 0.0063789953 0.0010007583 0.0039824825 0.0011001006 -0.005043095 -0.0011156648 0.0050384104 -0.0036072712 -0.0031195823 0.003847191 0.0021196082 -0.0014437307 -0.002247613 0.004695883 -0.004466202 -0.002528675 -0.005068613 -0.0033083074 -0.006703902 -0.0034920238 -0.006649399 0.0010967012 -0.0067329668 -0.0077473875 -0.00640752 -0.0052911453 0.005219206 0.0029566847 0.00027825497 -0.0023109242 -0.0058033764 0.00041673332 0.0003905408 0.00015282631 0.00066608936 0.00061432086 -5.3251162e-05 -0.006255511 -0.004586151 -0.0065491498 -0.0010250341 0.0014223717 0.0057946313 -0.0015339274 -0.0018166341 0.0074118394 6.226823e-05 -0.0018785335 0.006722536 0.0020992216 -0.0041749794
5 0.005146958 0.0035235565 -0.0055113025 -0.0002524797 0.00065194257 0.004490122 -0.0013419185 -0.0021926016 0.0013659615 0.00066185184 0.00093189627 -0.002058033 -0.004676394 0.005721081 0.005927637 0.0064815283 -0.0067178495 0.0020597074 -0.0027812216 0.007515941 0.0022685677 0.0036258698 0.0018637609 0.0051628724 -0.0044869464 0.0061675087 -0.0018835329 -0.003563974 -0.0016101487 0.007604342 -0.0053567123 -0.0017122813 0.005469531 -4.355423e-05 -0.004917944 -0.004994942 0.0069846828 0.005023105 0.0037293695 -0.0025484748 -0.007240329 0.0029585063 0.005594179 -0.0044006947 -0.0061445422 -0.002322454 -0.0038530454 -0.0018086806 -0.0015189201 -0.004115252 0.0073805563 -0.0072646346 0.003518708 0.004222013 -0.0011009872 0.0070367903 0.0077229366 -0.0042773783 -0.0047039073 -0.0052710734 -0.0061678775 -0.002381185 -0.0043703336 -0.0065192822 0.0006116424 0.0023395754 0.0050115176 -0.002053868 -0.0034792796 0.0009762272 0.00030582957 0.006341405 0.00014281273 0.0056496765 -0.0064566527 0.0065886993 -0.0014757104 0.0067977756 -0.005950654 0.0014034268 0.00082537904 3.59416e-05 -0.0039869174 -0.0072247647 -0.0056751706 -0.0062118545 0.0014950987 0.00037380122 -0.0014165137 0.0055626296 -0.0019341353 -0.0010525864 -0.0069535654 -0.007754229 0.006991716 -0.004495265 -0.0049789045 0.004062036 0.0052109323 -0.0053372197 0.00074981153 -0.004694121 0.0012869872 -0.0033509992 -0.002688123 0.001707552 0.0067668576 0.005256336 -0.007560201 -0.00439227 0.0061565097 0.0015541855 -0.0033250414 0.00046782196 0.00743825 -0.0008614976 -0.007362999 0.0012565702 0.004869027 0.0049081016 0.0031966008 -0.004414249 -0.00028960407 -4.3217093e-05 0.0035717152 -0.0062824916 -0.0062643047 0.00020683557
97 -0.006725235 0.004546996 -0.00032641552 0.0077899825 -0.004174983 -0.00037979707 0.006059978 -0.003178073 -0.003918672 0.0012422428 0.0020708535 -0.0020038746 0.005037131 -0.005984338 0.0026512183 0.00038278848 0.006822018 0.004673995 0.0053245015 0.006111363 -0.0074219685 0.0074704867 -0.0060709026 -0.002066804 -0.0038331319 -0.0038802326 -0.0062684305 -0.0060809255 -0.0035571977 -0.0009963773 -0.0039867107 0.0047972985 -0.00743486 -0.0041461755 0.007372774 0.005461976 0.00599673 0.0033083893 0.000396166 -0.0046727695 0.0047021694 0.0020586178 0.0060151815 0.0049951896 0.006205132 0.006763598 -0.0077310596 -0.0052778944 0.0010449793 0.005031487 0.0057607926 0.0043101404 0.0059856437 -0.00400435 0.005144069 -0.0032096673 -0.0070744865 0.0071419366 0.0010401588 -0.0021560006 -0.0019358154 -0.0032972489 0.0037596375 0.0034376737 -0.0020729396 -0.0057358444 -0.0027858224 -0.00026298128 0.004762415 -0.0022166707 -9.444915e-05 0.00068728626 -0.005543476 0.0016132817 -0.0011190809 0.002189178 0.0037829857 -0.0010562651 -0.0021719877 0.0060458183 0.003941873 0.0052449387 0.0035278462 0.0067712143 0.005839819 -0.0008452255 0.0068340916 0.0035950914 0.0042504948 -0.0010828786 -0.00159478 -0.00345652 -0.0066524986 0.0023732241 0.006939994 0.0069685485 -0.0015174653 0.0047548097 0.002952909 -0.003356224 0.0015960336 -0.004248349 0.006413197 0.00424446 0.0024878383 0.0032051317 0.0067633986 0.0056812763 -0.00065115094 -0.0055256 0.0065472443 0.0056512374 0.0013519302 -0.0010527279 -0.004601635 -0.003541477 0.0067562237 -0.0024493039 -0.0049522035 0.007710997 0.006013004 0.0071255006 0.00088711083 -0.0065039694 0.006582044 -0.0028876811 0.004486073 0.0034309216
29 0.0075702686 -0.007260546 0.0071940664 -0.0072511937 -0.005396651 -0.0071110893 -0.0043336805 0.00575695 0.007159747 -0.0025979318 0.0029086322 -0.002832191 0.006157398 0.0045834966 1.6205013e-07 -0.002834903 -0.00564399 0.0037254803 0.0011351388 -0.0020415522 0.0061232857 -0.0031637624 -0.0071476456 -0.0017620865 9.7770244e-05 -0.005186919 -0.0042864196 -0.006640451 0.0072108377 0.005800022 -0.0002306588 0.005755987 0.006211553 -0.00061216764 0.005165696 0.002943378 0.003966283 0.0056663994 -0.003702648 -0.0017074477 0.00068212673 0.0033095349 0.0025815088 0.0039811153 0.003583191 -0.006592585 -0.0024873745 -0.0056537185 0.0075636115 0.003911406 0.0001334697 0.003213264 -0.005981352 -0.004917696 0.0024034325 0.0051051863 0.0030858386 0.004701579 -0.0015516654 -0.0026133824 0.00016185082 -0.0024955943 -0.0043100826 -0.006084813 0.005105892 -0.00085182674 -0.0014772508 -0.0060974807 0.007294979 0.00067823566 0.0013825279 0.0019466132 -0.005770307 0.0012803301 0.0023254398 -0.0066929925 0.0038717203 0.0019010995 0.0058577433 0.003940858 -0.0023685284 -0.0055960454 0.0055439156 0.0014855731 0.004061902 0.004985241 0.0014939681 -0.0047871973 -4.919246e-06 0.006459607 -0.0047644917 0.007373657 -0.005617924 0.0033069458 0.0016901512 0.0058130585 -0.0038197394 -0.0035658963 -0.0047641993 0.0025776308 -0.0035152063 0.006658504 -0.0033506472 -0.0071136095 -0.003762778 0.005012883 -0.004977597 -0.0041105766 -0.005706571 0.004704891 0.0026231203 0.002225304 -0.0024519935 0.0047116335 -0.0048068333 -0.0015469547 -0.004674284 -0.000777876 -0.0015788954 0.006629644 6.09383e-05 -0.0066994745 -0.0042414833 -0.005371865 0.0021034218 0.007388005 -0.0045437478 0.0064570513
65 0.0066656657 -0.0055176876 -0.006940011 0.007397799 0.006542472 -0.00366476 -0.0052547194 0.0061266683 0.0029401127 0.0063246116 -0.005915271 -0.0074414723 0.0012323484 -0.007660756 -0.0038170982 -0.0027032066 0.007516345 0.0067371633 -0.0022153184 0.0045522433 0.0064352304 -0.0017679539 0.007444173 0.0055939183 0.0015949216 -0.0030068476 -0.0039701182 -0.0023841038 0.006162394 -0.004836278 -0.0022773612 0.007180486 0.0027005114 0.004744228 -0.006275639 -0.0005871132 0.0043144114 -0.0036831796 0.005842572 0.007280931 -0.0003198199 -0.0016121883 -0.0004635621 -0.0045202263 -0.0065517835 -0.0011772458 -0.0019978005 0.0034237765 -0.005365249 0.0042294487 -0.005269598 -0.006109601 0.006618524 0.0069676675 -0.002719719 0.0027276669 -0.004527919 -0.0068360046 -0.0043090414 0.0052724443 0.005013874 0.007373495 0.0055119414 0.005277306 0.0010157544 -0.007659612 0.0035841893 -0.00042048655 0.004946949 0.0013933387 -0.0024451558 0.006062478 0.0012145825 4.313141e-05 -0.00360387 -0.0066043157 -0.0060678385 0.006773835 -0.006972626 0.007058371 -0.007250795 -0.00021621585 -0.0014898814 -0.0069774576 0.0067422334 0.0052951667 0.0023589358 0.003776135 8.764863e-05 0.0073630307 0.00548538 -0.007698225 -0.0034634545 -0.0010078996 0.0023810323 -0.0033780877 0.0011321604 -0.0061296094 0.002170369 0.0036739781 0.0038572755 -0.0024810173 -0.0065836255 -0.0072036088 -0.0005647652 -0.005724583 -0.0053241905 0.0047812536 0.005603362 0.0016542338 -0.006171407 -0.0044523347 0.006290503 0.003063159 -0.0040941183 -0.0057749264 0.0006027762 0.0027060583 0.00162437 0.0024225023 -0.0043910164 -0.007726161 -0.00548503 0.0001799278 0.0036083423 0.0035361778 0.0014686026 0.0040395893
74 -8.2314014e-05 0.0032141916 -0.0071275327 0.0060163364 0.004802713 0.0040032472 0.00563021 0.0065935906 0.0005771052 -0.0013311412 0.00040517747 -0.007278735 0.0065673552 -0.004984323 0.0065842513 -0.0033159032 0.00050534494 -0.007159507 -0.0074676313 -0.006122509 -0.0060398877 0.0002934225 -0.0056456737 -0.0038673542 -0.0041185208 -0.003351014 0.005478367 0.003772961 0.0067834146 0.0055418685 -0.0044487547 0.005656872 -0.007261643 -0.002021538 -0.0060602874 0.003275469 0.0014064293 0.005504759 0.0023005456 -0.0054537896 0.0060255285 -0.004678849 0.007029459 0.002311878 -0.0031369478 -0.0036632773 -0.003450565 -0.0048019197 0.0073271412 -0.0020699967 0.0060722176 -0.007562762 0.0016474929 -0.0009637624 0.005893929 -0.007073907 0.005810596 -0.003988903 -0.0046982616 -0.0044134036 -0.0026399773 -0.00266492 -0.0024966132 -0.0058532823 0.0005537309 -0.00045005605 -0.0013156254 0.0029352587 -0.005953273 -0.0025167372 0.0040276106 0.006674893 -0.0076640155 0.005621357 0.0041480362 -0.0030310135 0.0067001227 -0.0072046816 0.0056630317 0.0041904952 0.001010621 -0.004062308 -0.0032645725 -0.0026224852 0.0012564734 0.0012396127 0.0057720654 0.007794995 0.0069276076 -0.0031300392 0.0075354613 -0.0004918296 0.0038011186 0.0019914191 -0.00049204007 0.0028651934 -0.0041557923 -0.004497405 -0.0059411284 0.0014894009 0.0050983354 0.00068916194 0.0009819902 0.0024778098 0.0063552074 -0.0060156733 0.0017662123 -0.0058391485 0.0028982908 0.0074301157 0.005875202 0.0050203353 0.0062615424 0.0051180813 0.0053567775 0.00678288 -0.0038656574 0.0071976203 0.0039525013 -0.0016642585 0.0066308193 0.003969798 0.007538246 0.0022128131 0.0077090133 0.0009351596 0.0071321744 0.002802318
40 0.0051287543 -0.0028213523 0.005306959 0.005659042 -0.0016667675 -0.0014527775 0.0028216764 -0.0054972097 0.0076058973 -0.0076409243 -0.005077727 0.002174832 0.00502499 -0.0041932557 0.0021503847 0.007126024 -0.005324548 -0.004765557 -0.0038981587 -0.002872197 0.0014450904 0.007564556 0.0050295126 0.00031022727 0.0019302871 0.0065941326 0.0071320143 0.004397463 0.004645517 -0.005953662 -0.0029903688 -0.0044377595 0.004829511 -0.0017628521 -0.0068589337 0.00595244 0.0065622516 -0.0025939345 0.00712239 -0.00057684444 -0.0028332192 -0.00030053966 0.00015189499 -0.0027382001 0.002197845 0.004476331 0.005366413 -0.006955834 -0.0017130692 -0.004282655 0.0058758594 0.0050794557 -0.0034068152 0.0018178374 -0.0046512987 0.00018476136 0.0073919985 -0.002038939 -0.0040529054 -0.005779071 -0.0022749547 -0.0006752461 0.0027561411 0.00761085 -0.0026478712 0.0014857557 0.0075632874 0.0011965521 0.00077069923 0.0076581016 0.007262077 0.006021926 -0.004820725 0.0077999886 0.004569521 0.0070880204 -0.001558749 0.0026171375 0.0053387154 -0.0030419976 0.005189726 0.0020022355 0.0072763506 -0.0023717228 -0.0024291947 0.0048557725 -0.007092379 -0.0056671817 -0.0050781462 -0.00058521517 -0.0018461104 0.0053246245 0.0072160866 -0.00071075 0.0011037681 0.0015784036 -0.0015779678 -0.006276829 0.0058133192 -0.0033577364 0.003575405 0.007101331 0.0023775175 0.0024521798 0.0031733029 -0.0021103267 0.0029881 0.00026376732 0.0043958686 0.00429482 0.001428999 0.004491724 -0.007006312 0.005124498 0.0072078053 -0.0032868348 0.0012558978 -0.00408897 0.0008267332 0.0021641944 0.0063755754 0.00042500906 0.0019977018 0.0010138545 0.00656447 -0.0044591427 -0.004892055 -0.0028339997
112 -0.0017973054 0.0039383303 -0.0063440297 -0.0022136997 -0.0064042397 0.004023211 -0.0020062998 -0.0070836786 0.0031810384 0.007044783 -0.002373172 -0.004561359 0.0023592878 -0.00034050643 -0.0077964347 0.0065763313 -0.0057335068 -0.0038518813 -0.0020758454 -0.0042596217 0.0013410226 0.007588135 0.0035720877 0.006319221 -0.00036754645 0.0005038455 -0.00208465 -0.0068590324 0.0026807059 0.0016354471 -0.0073608235 -0.0038815923 -0.007604765 -0.004468588 0.0031754225 0.006752234 0.0032122266 0.0018659867 0.006363107 -0.0008743834 -0.0010919645 -0.0068334565 -9.827502e-05 -0.002005916 0.00030162185 0.005687235 -0.005501142 -0.0030831844 -0.0052067228 -0.0027688406 -0.0025904942 0.0016696248 0.0026001316 -0.0038728025 -0.0035517905 0.0008896049 0.0042605326 0.0041981637 -0.0023191702 -0.003333224 -0.0043880064 -0.00042576902 0.0015206039 0.0011916757 0.005744163 -0.0021354482 -5.1504e-05 -0.0043184645 -0.0009141136 -0.0060249716 -0.00074947625 0.0010231826 -0.006714644 0.006834831 -0.0071936455 -0.0075192787 -0.0066497065 0.005713491 0.0042699743 0.007226141 0.00200795 0.0006613508 -0.0019839387 0.0073106773 0.0021543037 0.0031997245 -0.00092416815 0.00070664287 0.0051752403 -0.00056757964 0.002610553 -0.00052501634 0.0041003097 0.0028436985 0.0020176005 -0.0041483548 -0.0036782045 0.0033656415 -0.004614977 -0.00014078617 -0.0004949346 0.0027290955 -0.0065955203 0.006888464 -0.0011318326 -0.004164787 0.0031675529 -0.0015121028 -0.0060667843 -0.0035131238 -0.00030291267 -0.0069894325 0.00044575147 0.0019076504 -0.0025197454 0.0020081252 0.0019381233 0.007803293 0.0011175815 0.0015785452 0.0021715313 -0.0016233381 -0.006795794 0.0062681045 -0.0015427321 -0.00757212 -0.0051187538 -0.0030827038
134 0.003089333 0.0039363913 0.004754696 -0.005289266 0.0005381536 -0.0021681897 -0.004069686 0.0054541193 0.003087474 -0.0024269596 -0.0064663347 -0.004016239 -0.00050744973 0.00610294 0.0047220197 -0.0066028573 -0.007471513 0.005573308 -0.001818411 -0.002884617 0.0044920556 -0.004565865 0.0039796513 -0.00018939562 -0.0053712223 -0.00025909208 0.0049679615 0.007260889 0.0017350875 0.003945384 -0.0038863476 -0.00062308833 -0.0041544028 0.0009288769 -0.0014009494 -0.002837997 -0.005479984 0.0075425245 0.0023248643 -0.0017822068 -0.0032688212 0.0060263965 -0.005063949 0.0024387054 0.0006151218 0.00650225 0.0053407624 -0.0022723805 0.0019805469 -0.0013016202 -0.0073864553 -0.0020417664 0.0010410342 0.005110044 0.007800471 0.0070800427 -0.0062620007 0.005071394 -0.0044646394 -0.0007590428 0.00037720427 0.0051421355 0.0034922995 0.0035966616 0.0074086897 0.0002989564 -0.004717745 -0.004945392 0.0050248355 -0.0040957667 -0.002226416 0.0031838156 -0.0017892476 -0.0047071986 -0.0018153563 0.0009429045 0.001705749 0.004752947 -0.004073439 0.0024046563 0.005656777 0.0017149318 0.0042167883 -0.0037854165 0.004806727 -0.005938502 0.0027288012 -0.0072826594 -0.0020346176 -0.0070884377 -0.0012408346 -0.0041912124 -0.0030811876 0.00090129115 0.0021877717 -0.0011924971 -0.006383216 -0.004623456 0.0006400738 -0.0030830149 -0.0073675383 -0.0006054491 0.00518224 0.004670972 -0.0077478588 0.002436392 -0.004677579 -0.007173352 0.00013297796 -0.00028876588 -0.0054468755 -0.004906295 -0.0018953793 0.005544262 -0.005895218 0.0060141273 -0.00037144125 0.00085413456 0.0074083284 0.003693875 -0.002791224 0.002918452 0.0027494412 0.004950544 5.417131e-05 -0.0034560058 0.0010298993 -0.0042298716
77 0.0011029355 0.0038485788 0.004027225 0.0071731545 -0.0058692694 -0.0042215977 0.0050541963 0.0010589678 -0.0051654708 0.0006909296 0.0020914376 -0.0019756537 -0.0038751252 0.003909964 0.007517047 -0.0057536513 -9.0096146e-05 -0.0020034835 -0.004972767 -0.0010770746 -0.004102176 0.0070781205 -0.004524039 0.0028797463 -0.00018553622 0.0032962319 0.0016516764 0.007809235 0.00049178116 -0.004269084 -0.00092163496 0.001617603 -0.0026352108 -0.0061302874 -0.004374424 -0.005273491 0.004963536 0.0030644964 0.0064183865 0.0050934907 -0.004787376 0.002121836 0.006618848 0.0012466069 0.002397053 0.0045411047 -0.0069057588 0.007128708 0.00532772 0.0066487826 -0.0064267684 0.00482464 0.005178962 -0.0010606591 -0.0049170833 0.004161468 -0.005359046 -0.0041588712 0.0027435068 0.006313259 0.006791167 -0.0034416523 -0.0071787275 0.007506011 0.0049143024 -0.0030987002 -0.006609164 -0.003686199 -0.003091585 -0.0025573839 0.00063991547 -0.00023215823 -0.0024315454 -0.0046843663 0.0073597804 -0.003691826 -0.0056735147 0.0060036946 0.0019669496 0.0067393705 -0.003488373 -0.005384691 0.000769455 -0.0009163879 -0.0073414575 -0.0012524016 0.0023832805 0.005129516 0.005347844 0.0025064666 -0.0034713075 -0.00143685 -0.0030783266 0.00451087 -0.0049677417 0.0016429834 -0.001050964 -0.004541233 -0.005661104 0.0045723133 -0.006529847 -0.0005369149 0.0022089258 0.0060461015 -0.0057014916 0.002581697 0.0076628886 -0.005450843 -0.002761608 0.0040105563 0.0040924884 0.0012688395 0.0062274486 0.0006496776 0.001461966 -0.0012541022 -0.006379904 0.0025451593 0.0015362222 -0.0068235975 -0.00052735023 5.9898943e-05 -4.656613e-06 0.006804792 -0.001959974 -0.004611451 0.005846357 -0.005671667
133 -0.0070047807 -0.0013981201 -0.006537061 0.00030484982 0.0015201047 -0.001929285 -0.005037509 -0.00025092252 -0.0008582063 0.0027291887 0.0063492283 0.004574664 0.006594522 -0.0070063844 0.007376943 -0.0018482469 0.006794572 0.0018629823 0.0028009694 -0.0074856933 -0.007411292 0.007018687 -0.0022631008 0.002200326 0.005015189 -0.0002343189 0.0075952318 -0.0008075908 -0.007556934 -0.0055116005 -0.00081496686 -0.006777266 0.0057980064 0.0028276034 -0.0068335515 0.0066247825 0.0069762804 0.0045682564 0.005398322 -0.007477276 0.00038474053 -0.007203618 -0.0028640758 0.0001977887 -0.00021906756 0.0011447519 0.0025605801 0.001661662 0.0041561294 0.0058753863 -0.0045981947 0.0062166527 0.0046808645 0.007645225 0.003612388 -0.002599435 -0.0029268805 -0.0004915036 -0.0012931246 0.0077129565 0.0008775033 0.003130667 0.0026707463 -0.0069150813 0.005250482 0.006399242 -0.0013014395 0.0018230099 -0.005061887 -0.0047857463 0.006418785 -0.0023792349 0.0052656494 0.0012134258 -0.0015480965 0.0023869742 -0.0031414498 -0.0013948679 0.0010786951 0.0038181096 -0.0010978319 0.00051291287 -0.006197227 0.0074180905 -0.0068457425 0.0055233743 0.003050888 -0.0054672416 -0.0041368585 -0.0062017553 -0.0040080305 0.0055238996 0.0075317323 0.001683291 0.0005003158 0.0074409917 -0.0038855989 -0.0010025818 0.0025629979 -0.0050109643 -0.0075793676 -0.0072345585 0.0070474185 0.0041966345 -0.0037408024 -0.0065075327 0.0010108985 0.0022484865 -0.0009728782 0.0009928681 -0.0033760183 0.0037432536 0.0011524875 0.0069357995 -0.007794151 -0.004116852 -0.007111596 -0.00027181208 -0.0061385203 0.0039306562 -0.004997544 -0.0046506543 0.003961649 -0.006374819 0.0011368766 -0.005655892 0.007705016 0.0067451242
117 0.0013819933 0.0045222677 0.0035907924 -0.0046810806 0.0076226145 -0.0075642243 0.006288482 0.0021534208 -0.002386814 -0.0027827062 0.0070874635 -0.004250711 0.0063959938 -0.004694443 0.006555762 -0.00043397956 0.0062051546 -0.0024648216 0.0046712607 0.0068783946 0.0019873735 0.0010294914 0.003936868 0.0062519703 0.00669376 0.0066349786 0.0055097863 0.006252069 0.006718546 -2.5853515e-05 -0.00078416616 0.0013013985 2.5574118e-06 0.0005352944 -0.006719483 -0.007495884 -0.0018083416 0.0069751553 -0.0028496776 -0.0054517146 0.003812017 0.00083524734 0.0014461093 0.0028538723 0.0027505253 0.0044735316 0.000964297 0.0006597359 0.007066602 0.0021736063 -0.0036741067 0.0051110834 0.004072899 0.0022426303 -0.0024514329 0.0026069023 0.0049721077 0.0055320617 0.00073528476 -0.006665444 0.00020137616 0.00028938986 0.0030804537 -0.0073976256 0.007584274 -0.0054470915 0.004501125 -0.0073670875 0.0075379126 0.0057225227 0.000985669 -0.0026603416 -0.00035207905 0.00033017434 -0.0050071925 0.004488405 0.0018526576 0.002951512 -0.0056679826 0.0066611636 0.0003970731 -0.00015931763 -0.0070871934 0.00316309 0.005283933 0.0057461653 -0.0050136913 -0.006137548 -0.0043154024 -0.00047101453 -0.006514048 -0.0064375903 -0.0014981013 0.00089006685 -0.00742699 -0.0029163547 0.00050373375 0.0053202845 0.0013554618 -0.00049404986 -0.005844841 -0.0052672625 -0.00054252334 0.0058340486 0.004252242 -0.0011583529 0.00091586635 -0.0075045135 -0.001081638 -0.0036142375 0.004538523 -0.0018265732 -0.0037219264 -0.007402433 -0.00093774684 -0.0056232587 -0.0013165772 -0.0031795502 -0.0018547941 -0.0025377627 -0.006372245 -0.000975322 0.0013210494 -0.003162222 -0.0059698857 -0.002802059 -0.0070680734 -0.00059252046
144 0.0045960974 -0.0023135524 0.0024701227 0.0039029047 0.006615959 0.00439173 0.007428551 -0.007536471 -0.00622084 -0.0052798092 -0.0058341473 -0.0062215775 -0.0060845073 -0.002298927 0.0010907501 -0.002245929 -0.0068876967 0.0038952045 0.00070382096 0.0035862513 0.005621357 0.0059752297 -0.00062863156 0.0028593428 -0.0040027946 0.0014927201 0.0035455227 0.0077239554 -0.0024902262 0.0022182297 -0.004481524 -0.0017270055 0.0063477308 -0.0030505136 -0.0009285789 -0.007253887 -0.0074037313 0.0069396608 -0.004455408 0.0039474927 -0.005440319 -0.0019207131 -0.00626792 0.0058597866 0.0047870427 0.0041081794 0.006545201 -0.0005441662 -0.00727557 0.0071216132 -0.003850419 0.006131241 0.004323328 -0.00084302947 -0.0059876684 -0.0011404715 0.004885575 -0.0054422524 0.0011266377 -0.006212389 0.006813552 -0.0022310857 0.0073728915 -0.0044594333 -0.007591972 -0.0067405496 -0.0031834655 0.0036793705 -0.00018901564 0.007205868 0.0024290737 0.0029279422 0.002340898 0.006366132 -0.0018724333 0.0057869833 -0.0074505582 0.002282098 -0.00053255446 0.00035332516 0.005346101 -0.0022202916 -0.001841234 -7.8497455e-05 -0.0003888216 -0.0027929395 0.0048785023 -0.00512396 0.0061656237 -7.301569e-05 0.0020381566 0.0025180858 -0.00022004172 0.0013330486 -0.0024536364 0.0037159808 0.00018985197 -0.0025629662 -0.0068082623 -0.0078110006 0.0002443567 -0.0044896957 -0.0008669216 -0.0032860115 -0.0067490824 0.00082976185 0.0046180394 -0.0017273203 -0.0056022014 0.002463622 -0.00030053593 -0.0043133926 -0.00086377375 -0.00049973093 -0.0024867896 -0.007777404 0.0059676506 0.0029109437 -0.001975948 0.00570873 0.0003551487 0.005604025 -0.0012090337 0.005854428 -3.3305958e-05 -0.0047479384 -0.003684258 0.0075222068
126 0.00045395456 0.00080265664 0.0066017862 -0.004912816 -0.0013780147 -0.006389782 -0.005214652 -0.0067035053 0.0030707885 0.002140114 0.0043870416 0.002009185 0.0016511828 0.004480589 -0.001653444 0.0024783574 0.006596688 0.0003031809 0.004917642 -0.0052684136 0.0051373597 0.0036636535 0.003969021 -0.007749051 -0.00033550337 0.0025047753 -0.004551554 -0.0052295215 0.0049718004 -0.005331056 -0.004048828 0.0063451864 -0.005484607 0.006676074 0.00051142275 0.0034419578 -0.002353469 -0.004240418 -0.0069902614 -0.0004784949 -0.003986124 -0.002403153 0.0063370727 -0.00597493 -0.0049291253 -0.0041122492 -0.005159173 -0.0069067366 -0.00086721964 0.0073796697 0.0062785447 -0.004120389 -0.0063574277 -0.0017635897 -0.0072396733 -0.0039591715 -0.004646724 0.0023633763 -0.0059133153 0.0009770188 0.0017866418 0.0041510276 -0.0015784353 -0.0076341107 0.0040794276 -0.004614448 0.0038169958 0.0015427768 0.0068886094 0.0011963565 -0.0014277063 0.005069351 -0.005523376 -0.0065539554 0.002960289 -0.0020132437 -0.0032686256 -0.0015038121 -0.007714916 0.00020354427 -0.0008255113 -0.0023214202 0.001953628 0.0036667138 0.0049551614 -0.0061826147 -0.003897652 -0.006865211 -0.006991435 -0.0029141102 -0.0009950828 -0.0064161196 -0.00420025 -0.0016810745 0.0049552247 0.0012254752 0.00649585 -0.0064970385 -0.0035749022 -0.0006281901 0.0068751387 0.00086433627 0.0012031067 0.0010084249 0.0022832975 -0.007340584 0.0025425013 0.004269285 0.0041299425 0.0034686625 -0.006317476 -0.003171701 0.0065225866 -0.00044772774 -0.0073724836 0.0037372168 -0.0047227647 0.005219916 0.0041982643 -0.0039419327 0.0020073652 0.004231751 -0.0028010197 -0.001184402 0.0071637277 0.0070806313 -0.007338254 0.0059119593
56 0.0077250376 -0.0022188835 0.0019213632 -0.0021901187 0.006754253 -0.00022131577 0.004403366 0.007197574 0.0032111295 -0.0055628046 -0.0015045553 0.00076408125 0.0015891213 0.0023079794 0.007382311 0.0034383591 0.0077452343 -0.006763831 -0.0044956375 0.0015518013 0.002856385 -0.00077435933 -0.0053997263 -0.0025091115 -0.0066621657 0.0073521193 0.0029097144 -0.0061557963 0.0024898183 0.003260808 -0.0044054575 -0.0046193693 0.00081122294 0.0070015974 -0.007536158 4.913658e-06 -0.005363239 -0.00072832033 0.0023757815 -0.0039296616 -0.002168754 0.00052780285 -0.0049704853 0.0056926385 0.0034206416 -0.006686356 -0.001678884 0.002472289 -0.0065059327 -0.0055225883 -0.006604485 -0.0042957757 0.006918825 0.0055289436 0.0022544637 -0.0066832583 0.0044869 0.0036198571 9.294972e-05 -0.0069085453 -0.0014716648 0.0001491122 -0.0060608927 0.0019298121 0.00037794188 -0.005515648 -0.0064604767 0.0047204606 -0.0065238215 -0.004359208 0.0043594725 -0.00037996285 -0.0023862235 -0.0040581077 -0.00093589723 0.004118528 -0.004645657 -0.003888417 -0.0038661119 -0.003715897 -0.0062344484 -0.0076222382 0.0059235673 0.006247461 -0.003347123 -0.007287549 -0.0014629029 -0.0028970875 0.007108288 0.002296986 -0.0046704262 -0.0026236605 -0.007736316 0.0015188437 -0.003115913 -0.0021161754 0.0040441323 0.0059367362 0.0034248643 -0.0053284504 0.005233314 -0.0075248387 -0.0054588187 -0.006254688 -0.0017679147 0.0003748741 -0.0029470958 0.0014416967 0.0071931127 0.00521723 -0.00082408264 0.0071038734 0.001216324 -0.0015421193 -0.0051523056 0.0050577354 -0.007085627 -0.001481723 0.006009685 -0.002020985 0.001254838 -0.0057391524 0.0038891248 0.005760208 -0.0072722975 -0.0025608242 0.006166201 0.0022920482
141 1.1360273e-05 0.00026820973 -0.0077073667 0.007763086 -0.0015635472 -0.0038182195 0.002147844 0.00080466457 -0.0046340544 0.004525503 -0.0019558333 -0.0048268605 0.005652897 0.00504959 0.0068908446 0.0009089019 0.00039843842 -0.006195016 0.00363194 0.0073133856 -0.00053096935 -0.0013773199 -0.0029790383 -0.0003842786 -0.0059511214 0.004444722 0.0011647549 0.0072599575 -0.005019067 -0.0039759614 -0.004870821 -0.005684916 0.002153568 0.0038239192 0.001048414 0.0027662106 -0.00733459 -0.000835618 -0.00604913 0.002306357 -0.0020985436 0.0069398433 -0.0026830789 0.0053423587 0.0032147411 0.0010659322 -3.161095e-05 0.006384792 0.0018451065 0.006451741 0.0026057698 0.004236806 0.0039858688 -0.005959986 -0.004522344 0.0009642001 0.00015180372 0.0016760435 0.00083253346 0.0059271045 -0.0034544487 0.0002535917 0.005473856 0.0017592143 0.0033146478 0.0033619348 -0.000988787 -0.006502012 0.002378324 -0.006932143 -0.0020787977 -0.007337535 -0.00036095083 -0.0061431974 0.005792169 -0.0038205609 0.007748671 -0.007056458 -0.003368888 0.001506973 -0.0023417436 0.0011295173 -0.0028756596 -0.000698572 -0.004474506 -0.0076726675 0.004952498 0.0002997294 0.0050855596 -0.005837992 0.002862148 -0.007732725 0.0059458837 0.004628552 -0.004779281 0.006416453 -0.004359413 -0.0066825002 0.0011720974 0.0024843458 -0.0063254703 -0.006979894 0.007165095 0.0012841988 0.00068306737 0.001936119 -0.0027399566 0.001355499 0.0015297513 0.0076609384 -0.004381353 0.0017758012 0.0049274545 -0.0052166656 -0.006979523 0.0067626704 0.0053422265 -0.0031404495 0.004486207 0.00061603077 -0.0039145965 -0.0010544974 -0.0038268473 0.0047927946 0.0015327074 -0.0064999536 -0.00011426583 -0.0020685475
24 0.0051613487 -0.0008950699 0.0059891418 0.0015220903 -0.0029925946 0.00637356 0.0023043249 -0.0031015929 -0.0043748766 -0.0024134908 -0.0040113833 0.002687594 -0.007252058 -0.004547542 0.0026103295 0.00015441328 0.0046836734 -0.0028168596 -4.6677887e-06 0.0019335952 0.0042661373 0.0012588967 0.007668823 0.0029048529 -0.005611077 -0.0010984968 -0.0065376014 -0.004161777 -0.0017151553 -0.0075841025 0.007261945 0.0015874747 -0.0009071734 -0.004299771 -0.006648306 -0.007737091 0.006987801 -0.0019526761 0.0035877936 -0.003529191 0.0077797323 0.0028552506 0.000801323 -0.003159456 0.0009457972 -0.0020678155 0.005742764 0.0034986343 0.0007708445 0.0027211625 0.0029018354 -0.005301075 0.0069771577 0.0013564304 -0.0045214575 0.0067630336 -0.0010089669 0.0063961223 -0.0011772439 0.005459102 0.0021299962 -0.0034060385 -0.0029280689 0.00718108 0.0012436453 -0.0046929773 0.000273142 -0.0015331246 0.0012379102 -0.006029155 0.005768817 0.0010251757 0.0061524976 0.0034789406 -0.0034327134 0.002931781 -0.0004988164 -0.0077001955 0.0064391643 0.007538572 0.0075417105 -0.0029685982 -0.0066012684 0.003771644 -0.0059808455 0.0066656657 0.0021564458 0.0043776073 0.00477851 0.00036313012 -0.0016366374 0.0006040409 0.0076843426 -0.005566044 -0.0012128558 -0.0018426105 0.0038015675 0.005039092 -0.003228156 0.0028309915 -0.0035008807 0.0025550518 0.0063816197 0.002834849 -0.0035725087 -0.0023509096 0.006145628 0.0075031724 0.0045446046 -0.0025578402 -0.001426002 -0.0048885886 -0.0033559185 0.0026362203 -0.0050685517 -0.0051688757 0.0063370466 0.007426141 0.0063598305 0.0011800267 -0.0068717897 -0.005935287 0.0012281854 -0.0074434616 -0.005789226 0.0015813466 -0.0022821631 -0.0071539152
8 0.005012056 -0.0069930796 -0.0057386514 -0.0013680812 0.0013265684 -0.00080798566 -0.0040658396 0.00514004 0.006861571 -0.005790701 0.0076605976 0.0057551935 -0.0058286916 -0.0014843419 0.0033219047 0.0055153165 -0.002862256 -0.005447721 0.0036912765 -0.0070614126 -0.0045705494 -0.0010027196 0.004281966 -0.004442923 0.0037381127 -0.00033980235 0.0020837989 0.0050030686 0.0011075232 0.006022323 -0.0002518762 -0.0064560194 0.0071707014 -0.003795471 0.0036889892 -0.0030490495 -0.0057261866 -0.005088007 0.003654167 -0.0005151816 0.0011408348 -0.0069752187 -0.004020745 -0.004730018 0.0065724906 -0.00679487 0.0039256588 -0.00067293085 0.0001479499 0.006874811 -0.002801124 -0.0054197963 0.00059654564 0.006049089 0.007125674 -0.0028786808 0.0021350048 0.0038614143 -0.004134413 0.005353542 -0.005041383 0.0016412828 0.0035837945 0.0034258682 -0.0036455356 0.002064392 0.005710909 0.0067278817 -0.0074316654 0.0043552704 0.0038812999 -0.0012459047 0.0071772523 -0.0032664146 -0.0013661906 -0.0053619593 -0.0029505286 0.00018958934 -0.0025558863 -0.004232237 0.005131932 -0.004142856 -0.004938774 0.0059695058 0.0075399876 0.0031210296 2.0567328e-05 0.00061663426 -0.0007512141 0.005361447 -0.004885152 0.0003965702 0.0033532418 -0.0016495418 0.0006983448 0.0028985478 0.007585978 0.0016998127 0.007422002 -0.004554566 0.003750516 -0.0028346702 -0.0033318829 0.00095293485 -0.003224453 -0.00439623 0.0024554785 0.006513795 -0.005113801 -0.0071202684 -0.0026029442 0.005880652 -0.007569544 0.0074986536 -0.0003267564 0.0018006284 -0.0014450476 -0.0045016482 0.0024224184 0.004839912 -0.0055100825 -0.00091665424 0.0012182966 0.0033195093 0.005579179 -0.002770856 0.005683897 -0.004352322
41 -0.0017147083 0.0070974696 0.00420494 -0.006628951 -0.001293473 -0.006904861 -0.001282718 0.0044184513 -0.005795546 0.0043047406 0.004757859 -0.0029456876 -0.007543605 -0.0019678269 -0.0019945502 0.0029363558 0.0069692843 0.0015592985 -0.0016496386 0.002319973 -0.0053154062 -0.001010431 -0.0011587776 0.0075038 -0.0045387223 -0.00550019 0.0018446464 0.0020584129 -0.005582791 -0.004591996 -0.0009242371 -0.0025803316 -0.007012289 -0.003163688 -0.0023169965 0.0050802063 0.000760857 0.0012490712 0.00021745265 -0.002643859 0.002423726 0.0005559884 0.004674092 -0.00060564093 -0.006954115 0.0006896518 0.007752983 -0.004100917 -0.004075365 -0.0019677747 0.0067058187 -0.0006497223 0.0073580984 -0.006512586 0.007044563 -0.007588377 0.007187156 0.0014630575 0.0020784754 -0.004577033 0.0065931138 0.0047215857 -0.0042868275 -0.0074209534 0.005444063 -0.0043249466 -0.007282283 0.0020291843 -0.0038890708 -0.0057500396 0.0076019987 -0.0012389254 -0.0011804793 -0.003151957 -0.0034366045 -0.0036167074 -0.0043716524 -0.004142035 -0.0062674247 0.0074365977 0.004999269 -0.0028177295 0.001936283 -0.0059706997 0.005877422 0.0064880736 0.0006167423 -0.005338274 -0.002310725 0.0036984123 -0.0022963937 0.002481619 0.0073505584 0.003400864 -0.0040199067 0.0042711664 -0.0022493694 -0.004995266 0.005474845 -0.0072296355 -0.00088332593 -0.0010822974 -0.0065749586 -0.00086124986 0.0043728575 -0.0041153543 -0.0054891687 0.0048439596 -0.002676906 -0.006109029 0.00022919476 -3.8908795e-05 0.0058913324 0.00044476613 0.006158171 -0.007666236 0.0031509902 0.0048578978 0.0008042529 -0.002215946 0.00080204196 -0.00065556355 -0.006334586 -0.0052995887 0.0009376202 -0.0015764646 0.0074604824 -0.0007417407
108 0.004780231 0.0015985444 0.0063278824 -0.0072582196 0.001869319 -0.0011337958 0.0016835928 -0.00017171912 -0.005187994 0.007070668 -0.0022214055 0.0014955569 -0.0050325766 0.002901733 0.0078092217 -0.00093457475 0.0051407944 -9.712577e-05 0.006193891 0.0075397883 -0.0003056936 -0.001326831 -0.007438762 0.0077147447 -0.0019788798 0.001710305 -0.0013272557 0.006505741 0.0065185763 0.0012006909 0.0022544265 0.0050266124 0.0017560162 0.005034622 0.00011464022 -0.0017855242 0.004146291 -0.0026681833 -0.0020434465 0.0068685375 -0.0071521048 -0.0026669092 -0.0022844747 0.0044288505 0.006205857 -0.005040318 0.0045269765 -0.00017005764 -0.007056143 -0.0019083358 -0.0012377594 -0.0035006423 -0.0006201416 -0.0040925276 0.0046410896 0.007268265 -0.0012403633 0.0026380792 -0.00058438815 -0.00054658763 -0.005477002 0.0011382066 0.0030489787 0.0053984933 0.0051084682 0.0027629714 0.0036419295 -0.005806336 -0.0010832027 -0.0045176893 0.005313318 0.006114565 -0.0033390801 0.0009012949 0.003991721 0.0014136601 0.00061399676 -0.00526575 0.0076817796 -0.0056716427 -0.0047138706 -0.0044266265 -0.0049593467 -0.0027273912 -0.0073439814 0.0009204168 -0.002929872 -0.0019931942 0.004519485 0.002773814 0.0014225915 -0.0010734778 0.0077167787 0.00022387505 0.0039183237 0.007060742 -0.0076301396 -0.0071526356 0.007752208 0.0021381155 -0.0014731102 0.003690675 -0.00337141 -0.004998155 -0.0064511 0.0056329053 -0.0019135717 -0.0058931 -0.00461749 0.004824627 -0.001937259 -0.004801398 -0.0012640487 -0.0011512134 -0.0025428478 -0.0016322173 0.0032076035 0.0011301562 -0.0027268305 0.0021034162 0.0040851105 -0.007180322 -0.005904952 0.004919037 -0.0069828946 0.00041267462 -0.007026421 0.0065389276
116 -0.003354326 -0.005172264 -0.0010810718 -0.0008700583 0.0058851764 0.007116815 -0.00027404167 0.002104357 0.0037009344 0.00011152588 -0.0045156274 -0.00046439096 0.0017054491 0.0064857136 -0.0028065052 -0.0076918323 0.0042054113 0.0076646004 -0.005511543 -0.00045508333 -0.003956668 0.005027363 0.007544767 -0.00026020594 0.004015973 0.0051083434 0.0034445636 -0.006274402 0.0024239402 -0.00116124 -0.0016883444 0.0042203777 -0.0010289531 0.0077558346 -0.0004993584 0.00020596012 -0.0017919056 -0.0066511687 -0.0076649617 0.0038677845 -0.0051725283 0.0023167934 0.0021674857 -0.0054740496 -0.0024500135 -0.0045371577 -0.006691059 2.9817224e-05 0.007646136 -0.005215533 -0.0034076981 0.0065080673 0.007264463 0.0076682847 -0.0077283736 0.0039437134 -0.005189134 0.0053748786 0.004797576 -0.0026371945 0.0053782314 -0.006145619 0.003554348 0.0035784151 0.004627563 0.004593361 -0.0020807404 0.0030434392 -0.004772287 -0.0050460715 0.0021429807 -0.0073954593 -0.00023366511 0.0008524507 0.0062534846 -0.005469991 -0.0018148087 -0.0032079201 -0.004084328 -0.00036866218 0.0036025103 -0.00389212 -0.0012856703 0.006762795 -0.0010222159 -0.0027904809 0.0058059655 0.0009525027 -0.00026599504 0.007390449 0.0063481294 0.0026701987 0.0026236363 -0.0017849319 0.006323844 0.0039538164 -0.0042388625 -0.0047883894 -0.00046824478 -0.006187856 0.0026302412 -0.007206578 -0.0012066942 0.0026220102 0.0023795497 0.0024685636 -0.007080991 0.0026712362 0.0041768253 0.0027093198 0.006088216 0.0012933966 0.0048986077 0.006902432 -0.0007364508 -0.0006275326 0.001739854 -0.0058855433 0.004397152 -0.0039063413 -0.002555538 -0.0014317334 0.0064189583 0.0017550047 -0.0007090997 -0.0022228714 -0.001649959 -0.0010045338
36 -0.003971031 -0.0032252595 0.00014644116 0.003558334 0.0014032368 0.005392721 0.0004997775 -0.0025190078 -0.0057604015 0.0046929736 0.0054452606 -0.004733052 0.0036593657 0.0074207354 -0.0049849097 -0.002247613 -0.0071017984 0.002521962 -0.0026877038 0.0015970394 0.007374594 -0.0065288544 -0.00727582 0.0013411567 -0.006276887 -0.0070839897 -0.0073087662 -0.00022531301 -0.000860706 0.00058106706 -0.0010467377 0.007062461 0.006865414 -0.0049666613 0.0067936294 -0.0070532095 -0.001045648 0.001984246 -8.606911e-05 -0.002969414 0.0003662724 0.00078557245 -0.0073507596 -0.0038202219 -0.006024109 0.0029742904 -0.0006913282 -0.0058465507 0.0044028554 0.0001857318 0.0021077227 0.004242845 -0.00330491 0.0061288625 -0.0061388314 -0.0026898142 -0.0057550874 0.0007609576 -0.0057736523 0.0070802253 0.00432365 -0.005649289 0.0048237685 0.005159596 -0.0057931915 0.0036365539 -0.0060324203 0.007281773 0.0036643818 -0.00017894618 -0.006985748 -0.0006989259 -0.00021171942 0.00070835836 0.006767394 -0.0021688808 -0.006782826 -0.006901359 -0.0008262098 0.0010717697 6.815232e-05 -0.001721045 0.006677786 8.315034e-05 0.005014587 0.0031179897 -0.0056274906 -0.0016590916 -0.006075304 -0.0052793976 -0.002464043 0.005168123 -0.00065173954 0.0069407467 -0.0017904565 -0.004143996 0.0030588321 0.0017316192 -0.00021904893 -0.0019163135 -0.004689481 0.0031544287 -0.0059465393 -0.006958235 -0.007157443 0.0065531787 0.0031254552 0.0055407546 0.0077266395 -0.0056451857 0.0031472687 0.0022040121 0.004808424 -0.0026468392 0.007289542 -0.0045308005 0.005493913 0.0054294877 -0.0003062226 0.0039531123 0.0051911324 0.0012058932 0.0057566576 0.0018817764 -0.0011881012 0.0057768766 0.0036619902 -0.0024783127
96 0.0012860261 -0.00010936521 0.0038775448 -0.0042284634 -0.0032692272 -0.0007327758 0.0029858463 -0.0051418394 0.006129399 -0.002412375 0.004484359 0.0022375286 0.0053300653 -0.0034892708 -0.002501605 0.0023884699 -0.0021678247 0.0046425965 -0.00465174 0.002024725 -0.00056466274 -0.00047989935 0.0019832123 -0.0017072652 -0.0033261888 -0.006681716 0.0019439682 0.0041599274 -0.004583761 0.007116493 0.0031534638 -0.0040433016 -0.0010259598 0.0030674785 -0.0054729767 0.0016057249 0.0043020044 0.00488659 0.0042395256 0.002859395 -0.002150068 -0.0047488287 0.0063749384 -0.0057044104 -0.0012656823 -0.002549816 0.005069308 -0.004904246 0.00265274 0.0015996285 -0.0031867325 -0.006439602 -0.006279474 0.0027387887 -0.007469747 0.004458435 -0.0022753347 -0.0071664546 -0.004012592 0.0060502104 -0.001344854 0.0050047934 -0.007247295 -0.007145729 -0.0040642023 0.00074393675 -0.005605949 -0.007379707 -0.0069419295 -0.0003617294 0.0057918057 -0.006545773 -0.0041664224 0.0011855494 0.0025932286 -0.0066079423 0.006146688 -0.006419044 0.0037002359 0.0073557105 0.004422011 0.0048225485 0.006434867 0.002697587 -0.005581608 0.004489897 -0.006494485 -0.0044717696 0.0046138093 -0.0061948467 -0.0045862347 -0.0027799718 0.0026508272 0.004077887 0.0016056839 0.0039910562 -0.0020524021 0.0033999868 -0.00550656 -0.001297066 -0.006050626 0.00013578497 0.0036704354 0.0037500244 -0.0036369301 0.0013675559 0.006102521 -0.004354546 -0.0029591843 -0.00046682917 -0.0036873128 0.006794421 0.005892288 0.007204229 0.0073147546 -0.0066022184 -0.00037479773 -0.005942486 -0.0037576314 -0.0069060214 0.0026685726 8.316338e-05 -0.005402876 0.0062211584 0.00074451603 0.00023325905 -0.0027844273 -0.0026145373
43 -0.002064405 0.0059548244 0.0018707756 -0.0040397905 0.0036952645 0.00077382475 -0.002135273 0.0060230065 -0.0030837804 0.0058058742 -0.0032933094 -0.0057472363 -0.003512917 -0.0030457024 -0.0005503148 -0.0014410242 0.0039931387 0.0042582564 -0.0013584662 0.002916947 -0.0015847385 0.0005739108 -0.0010675304 -0.0019240826 -0.003685018 -0.003329521 9.9236146e-05 0.0012886319 -0.0073818043 0.004747154 -0.0013129823 -0.0023237336 -0.0037453715 -0.0033723041 -0.0037504677 -0.0076593533 -0.00060735457 -0.0060878024 -0.0037593953 -0.0057617035 0.0077622514 -0.0010592937 -0.006058002 0.004309913 -0.006301841 -0.0014939737 0.0021370817 -0.0055305827 -0.0068230685 -0.0051887296 0.005834643 0.007076325 0.0031183567 0.0018778779 0.0032326952 -0.0031800233 0.0076234657 0.005382281 0.0032138545 0.0069913194 -0.0065576285 0.00072975457 0.0069470387 -0.00073369965 -0.0052639656 -0.0017724857 -0.002178451 -0.0019517392 -0.0014407691 0.0056895837 -0.00023474172 0.0033143256 -0.0029308833 0.0064315423 -0.0050798096 -0.0072955303 -0.0032339748 -0.0057545304 -0.0038098563 0.00038656034 0.0018631648 0.0013592709 0.0039121713 -0.0010903478 0.0017829686 0.00027456507 0.00612922 0.0062709283 -0.0015417915 0.0009823684 -0.0047124308 -0.003717646 -0.005445957 -2.4754554e-06 -0.0038396101 -0.0031611696 0.0011755489 0.0020390674 -0.0071236026 0.0013651643 0.0040079765 0.0032504406 -0.0022710636 0.007406717 0.0073822457 -2.1226704e-05 0.00066819973 -0.0072252117 -0.0037538372 -7.929839e-05 0.0031589773 0.0001237914 -0.0068161227 0.0045428667 -0.0057930294 0.00668264 0.0043096766 -0.005293317 0.002220692 0.0060299076 -0.0047726855 -0.005114777 0.007186746 0.0014099926 0.0075862873 -0.0077395607 -0.0011729766 0.0053904913
147 -0.0011431109 -0.0013723262 -0.0055304803 -0.0044263825 -0.0050946176 0.0069713015 -0.0012380332 -0.006471481 0.0062624663 -0.0023131948 -0.00104063 -0.0005279742 0.002208449 -0.0036849845 -0.000201419 -0.0022230595 0.006856203 0.005374141 0.0008590184 -0.004739292 0.0024473518 0.0008878801 -0.0047846716 -0.004494 -0.0024192054 0.0018644538 -0.0063398574 -0.003899878 0.0063269734 -0.002884617 0.0062171295 0.0004185997 -0.0043237284 -0.0038782023 -0.00016811118 0.00358803 -0.004752716 -0.004303282 -0.0053210873 0.005270671 -0.0018779468 0.00313754 -0.0012706164 -0.0057933386 -0.00099089 0.00031492487 0.002801869 -0.0067781303 -0.0053166896 -0.005122587 0.002337724 -0.0029235613 0.00079463795 0.0032476932 0.0035303347 0.0018481389 -0.0022445936 0.0005005039 -0.0042122435 -0.0049630683 0.006809162 -0.0031645931 -0.0072796848 0.002915008 0.0066048186 -0.00014709495 0.0017693285 -0.0027712472 -0.0032753162 -0.0067342464 -0.00613516 -0.007093152 -0.004664533 0.0066311676 0.0073723905 -0.0013119001 1.19339675e-05 0.0061350428 0.0009863712 -0.0040197447 0.0020531658 0.0014107693 -0.002911238 -0.0038204305 0.0075341575 0.005975576 -0.0066954233 -0.0043165125 0.0011104774 0.0007149186 -0.006524222 0.0072876327 -0.0042045303 0.003594773 0.0072118044 0.00085179135 0.0032973308 -0.002121482 -0.007564334 0.0004686471 -0.0008467864 -0.007750554 0.0054731388 -0.0057703033 0.0040006675 -0.0034515783 -0.0071805287 -0.00708065 0.0048700776 -0.004090108 0.004103802 -0.0012328811 0.0075785667 0.0055963304 0.0077271517 0.00654752 -0.006144909 -0.0074898936 -0.0043521784 -0.00062659197 0.0039126445 0.0028670486 -0.001582209 0.0039428603 -0.0026558954 -0.0053232666 0.0036801025 -0.007699428
52 0.00069520436 -0.0039159246 0.0059335046 -0.0029031243 0.0022007674 -0.004888082 0.0075118896 -0.004367495 0.002788635 0.0025312547 0.0069777835 -0.0043479875 -0.003416853 -0.0048617683 0.004804561 -0.0035805646 0.0037587825 -0.0006969087 0.0056818184 -0.004715886 -7.6709315e-05 -6.846711e-05 -0.006673945 0.0068276394 -0.0016442109 0.0050275344 7.1462244e-05 0.003927503 0.0017294101 0.006913919 -0.0065075047 0.00658858 0.0067571886 0.0008287169 0.00345565 0.0029957145 0.0031685904 -0.002301896 0.0022223126 0.000598846 0.0037705507 0.0065727327 -0.006051652 0.00011906028 -0.006822046 -0.0012302045 -0.0070564523 0.002470972 -0.0012323726 -0.00054579787 0.0050211605 -0.006326951 0.00089810416 -0.001891559 -0.0029144827 -0.005689798 -0.0062309373 0.006478494 -0.0058108177 0.0037637856 -0.0029584356 -0.0009482745 0.002194725 -0.006706612 -0.004418047 -0.0060464386 -0.0073519815 -0.0037122574 -0.0024689864 0.00037946366 -0.00054485723 -0.006153498 -0.0029588435 -0.002142446 -0.004988039 -0.004983017 -0.002037447 -0.0061864145 -0.00645292 -0.0059263203 0.0027766228 -0.005928481 -0.002899032 0.0051786564 0.005780909 -0.0049983785 0.0053111725 -0.006071154 0.000102974474 0.005169185 -0.0022185687 0.007203296 -0.00025356002 0.003659809 0.0054315627 -0.0066724643 -0.0047425237 -0.0056995694 -0.0009148065 -0.005538691 8.537248e-05 -0.0062840898 0.00039879978 -0.00030397996 0.005056422 -0.0069387853 -0.002479259 0.004608089 0.0072143693 -0.0013946705 0.0006072242 -0.0047613364 0.0006415006 -0.006358966 -0.0059676655 0.0010804124 -6.3626096e-05 0.0043450333 -0.0076067485 0.0012930855 0.0012305323 -0.004099684 5.5568293e-05 0.0047328565 -0.005156152 0.0002259165 0.0030430928 0.0013323873
158 0.0022347625 0.006370805 0.0052267425 0.0027391035 0.0062310956 -0.0059897024 0.0058854558 0.003038684 -0.004610244 -0.0032750946 0.0049952213 0.004531393 -0.0077034384 0.0009749718 -0.00031297468 0.00063569285 0.005529564 -0.005603846 0.007532131 -0.0073887184 0.00485906 0.0074190106 -0.0029887669 -0.007338157 0.0048313197 -0.007003017 -0.0064806696 -0.00064814836 -0.0051909722 0.0068341717 0.006134037 0.00064749643 0.0062515885 0.007691171 0.0040545315 0.0033740755 0.0042013004 0.005010456 0.0036942456 0.0049892105 -0.0058201235 0.006921971 0.006470708 0.0073269755 -0.007045172 -0.0026929788 -0.00026738457 0.0032554027 -0.0064195115 0.00013132207 0.0047073606 0.0074806605 -0.0022203755 0.0014265496 0.004940944 -0.0015620291 0.001528522 -0.0072850697 0.0005550403 0.003577305 0.003514221 -0.007614577 -0.0040229317 0.0023208968 0.0012434758 -0.003672069 0.0045463108 0.0027435664 -0.006113151 0.0076846853 -0.006028747 -0.002367247 0.0076116007 0.00089342706 -0.004332116 0.00088017434 -0.0031964332 -0.005267592 -0.0060611777 0.0037173107 -0.007056933 0.0031729117 -0.0043170825 0.0042405333 -0.0034105536 -0.0043622795 0.004961904 -0.0067541488 0.0010413919 -0.0016605277 -0.0052233934 -0.0059806854 0.005278982 -0.0034880769 0.0035827346 -0.0075473506 0.001490077 -0.0015273616 -0.0046078917 -0.0021769162 -0.006763324 -0.002715148 -0.0020141453 -0.0017881282 -0.003989555 -0.007183647 0.0041746926 -0.001016004 0.0048231147 0.0024017897 0.0066790897 -0.0027467124 -0.0069490895 0.0010415763 -0.0070214607 0.004720917 0.0065957606 0.0003922265 0.0060175713 0.006669717 0.0032818057 0.004230447 0.0071317106 0.0008961968 -0.00644606 -0.00650453 -0.0013928022 -0.00048896857
39 0.0068916585 -0.0072740447 -0.0020257067 0.0071196277 -0.0011267513 -0.007091325 0.0015740283 -0.0045618396 -0.00428319 -0.004954867 9.8496675e-05 0.00564461 0.003218213 0.0063698627 0.0069123134 0.0035320316 -0.004727494 0.0055224355 -0.0074432213 -0.0037431847 0.0062502753 0.0061778035 -0.004235834 -0.0062321667 0.006308889 -0.0029782224 -0.0031760875 0.0056128222 0.004237363 0.0029826108 -0.0009606611 0.0067726616 0.0066032466 0.005448267 0.0070831235 -0.0045140963 0.0007802304 -0.0012740269 0.004953075 0.007639218 0.0040371325 0.0031716898 0.005103344 0.0045922734 7.995777e-05 -0.006518202 -0.0016955063 0.0070898645 -0.0039687175 0.00078820623 0.0038083605 -0.005412508 0.0063991193 0.0011511296 0.0018966794 0.006490428 0.0011379886 0.00069504045 -0.007362608 0.00770502 -0.007707851 0.006680183 0.003947379 -4.4191256e-05 -0.00615103 0.0072981697 -0.0010765921 0.0041770525 -0.0023670103 -0.0038319249 0.00012811832 -0.006273592 -0.0051884297 -0.0073869936 0.004179621 0.0003351625 -0.00071545877 0.003983764 -0.0015393291 -0.005769346 0.0022410005 -0.0046575125 0.00038210675 0.0074035265 -0.00074578077 0.004796952 0.0034868382 -0.0027614757 -0.004083095 0.006916659 0.0016443934 -0.00035344996 0.0006995294 -0.0038447846 0.002763372 -0.002421746 0.003292095 -0.0035598297 -0.0006194711 0.003048487 -0.0055853687 -0.0019709058 -0.0068139173 0.0012158062 0.0015708581 0.0018807184 0.0008442886 7.047318e-05 0.0017288662 -0.0007392224 0.0046262573 -0.0023081806 -0.0039725676 -0.00416225 -0.0075538196 -0.00633822 0.0016546715 0.003112888 -0.004512308 -0.00756385 -0.0048089027 0.0036471803 -0.0070866607 0.003969215 0.00496237 0.004781943 -0.005961502 0.0022131726
113 -0.004260093 0.007068051 -0.0033692904 -0.0018368512 0.0040790495 -0.0006432757 0.003978718 -0.003296867 0.0038914867 -0.007652357 0.004746044 -0.0009713955 -0.0043805 -1.5791506e-05 -0.00095593557 -0.0005640667 -0.0013763737 -0.0072446857 -0.0060962476 -0.0053126086 -0.006740762 -0.0035445169 0.0071781985 -0.0014157258 -0.0059350245 -0.004604589 0.002816597 -0.0021224655 -0.0012177862 -0.003323337 0.004657736 -0.006118832 -0.005857652 0.005879525 -0.005437933 0.0016849656 0.0002890285 0.0075528715 0.0033130236 0.0016149264 0.002152754 0.0017996002 0.0017186347 -0.002126675 0.0031962395 0.004765792 0.006982425 -0.00058471784 -0.0009548608 0.005052276 -0.0066132173 -0.0005126912 -0.005213473 0.003736958 -0.0069900323 0.0025389083 0.007034952 -0.00161523 -0.006898433 -0.0063895583 0.0025359895 -0.004176706 0.0050372314 -0.00092880614 0.0061356816 -0.0003930237 -0.0048567113 -0.0044542756 0.0006007515 -0.0037325155 0.005126126 -0.0027489588 -0.004395932 0.0007448569 -0.0038043335 -0.006415453 -0.0040998925 -0.0014544651 0.000340553 0.0028425343 0.0053663217 0.0052562226 0.0045791864 0.0002502259 -0.004548043 0.0070309266 -0.0005099941 0.003679715 -0.001112828 0.004529819 0.004142994 -0.0057009943 -0.002142679 8.5102394e-05 0.0015894976 -0.007257566 0.0037805848 0.0026344676 -0.00013588369 -0.0027322918 -0.0059411433 0.0059344172 -0.0067212395 -0.0057689026 0.0034778565 -0.0066495556 -0.0025657397 -0.0016332474 -0.0014865473 -0.0053400714 0.0033566598 0.0007803608 0.002856711 -0.001037756 0.005417986 -0.0074481145 0.004567357 -0.0040089395 0.0013306886 -0.005422704 -0.0019384567 -0.005022537 -0.0026179627 0.007601194 0.0021013413 0.0012541711 -0.0047529936 0.0043538846
75 -0.006350482 -0.0017917771 -0.0050534457 -0.004986139 0.0017945506 -0.0025677439 0.0018984992 0.003059717 -0.0048984494 -0.0013632067 -0.0021581985 -0.0076533686 -0.0076864026 0.00086719356 0.0034225564 0.00018163212 -0.0038062464 0.0028342064 0.0013192389 -0.0073762573 0.0056159683 0.0060727745 -0.0060402825 -0.0005972553 0.0047119614 -0.0021722373 -0.00026337616 -0.0032967497 0.0047770534 0.0054652784 0.0016298797 -0.0036715288 -0.0014297757 -0.0031240527 -0.007630421 0.0061023366 -0.00047829375 -0.0004719235 0.005534852 -0.00705955 0.0049424786 -0.005910501 -0.0041860994 0.003965307 -0.0027301721 -0.0027242117 -0.004928196 -0.0030546058 -0.0020785835 -0.003199203 0.00738593 0.0073862635 -0.00029810704 -0.00022218004 -0.004407672 0.0061856136 -0.0038629249 0.0046018977 0.0071194954 0.004495835 -0.0007407423 0.004328795 0.0054257866 -0.0030318648 0.0005224198 0.005069362 0.0045859423 -0.00013857521 0.0018594526 -0.0050889626 -0.0073127784 -0.0038653258 -0.0042092893 0.00045861304 -0.0031001829 -0.00028874166 0.0059644934 0.0076060053 0.006153032 0.0018665753 -0.0021197908 0.0018997807 -0.0021014977 -0.006992301 0.0053851884 -0.0067566726 0.0029591247 -0.0030908082 -0.004330514 -0.0008152984 -0.0051273294 0.0067063347 -0.0053733867 -0.0070004277 0.0045048892 0.003487505 0.003696449 0.001896048 -0.0029105525 -0.003997892 0.0013844948 0.0065207537 -0.004415842 -0.0018612836 0.0014440306 0.005251713 -0.004997967 -0.0035373084 -0.0020613838 0.0010428354 0.0041963104 0.0043354463 -0.0068043005 0.005681725 -0.0019548628 -0.0022208132 -0.0069207475 -0.004511783 0.007381724 0.002412133 -0.0062834118 0.0021932814 -0.0055255927 -0.007076474 0.0030201431 0.0015913807 0.0009801947 0.006911192
18 0.004891172 -0.003961431 0.0021311156 0.0019883607 0.0018733013 0.0065102 -0.0054011066 -0.0017964318 0.0007882416 0.0049826223 -0.0005068239 0.0061938427 -0.0036343094 -0.007055782 -0.0055110157 -0.003232574 0.0074869525 -0.004005676 -0.003787782 0.006385533 -0.005825145 0.0015701242 0.004465658 -0.0058830753 -0.00020545162 -0.0018501487 0.004348142 -0.0035628546 -0.005159991 0.007727921 -0.0036118347 0.0059408303 -0.0066052843 0.0054822993 -0.0026482567 -0.0061053596 -0.0009148326 -0.0018518772 -0.0014207475 -0.00091980956 -0.005091494 -0.0027694423 -0.0024979208 0.0060330424 0.0045835245 -0.00069863535 -0.00376294 0.004134612 -0.0069044027 0.0012886636 0.003133595 -0.0015216377 -0.00353463 -0.006427886 -0.0064745434 0.005568266 0.0028414857 -0.00030189008 0.0075865183 -0.0066751074 0.0004603695 -0.00034710765 -0.006305052 -0.007109249 0.0056162197 -0.002838198 -0.0061726924 0.00621303 -0.004886154 -0.0024389513 0.0013872031 -0.0026182923 -0.006222436 -0.0030634906 -0.007042283 0.0010919981 -0.0036161728 -1.5690923e-05 0.0021282416 -0.0018539615 0.0068891924 0.0055019874 -0.0004303828 -0.0004961025 0.0006643329 0.005273694 0.0069909263 -0.0015062485 -0.0012441836 -0.0023218486 0.00039300323 -0.0050585754 -0.0014589652 -0.006756326 0.0005140938 0.0011204723 0.0029123817 -0.002245281 0.004633257 -0.005529564 0.007669298 0.00041648373 0.0017933715 0.0034033097 0.00032762624 0.0020278841 0.0012614429 -0.0075132474 -0.0024589412 -0.0020270124 -0.0072365794 0.0026838444 0.0037498418 -0.0016261861 0.005795017 -0.0009459518 -0.00021770783 0.0045175273 -0.006619733 -0.005399106 0.005743133 -0.0051424466 0.006615581 0.0041796863 -0.0062861834 0.0065633655 0.0049361214 -0.0052459426
163 -0.0066115055 -0.0069020763 0.0029931366 0.004950624 -0.001667751 0.0010479186 -0.006557515 -0.0039995126 0.0036751851 -0.0070811305 -0.007216569 0.00078759156 -0.0067069456 -0.005420236 0.0037133507 0.0062543396 -0.0057493597 0.006332893 0.0073276293 0.0036811698 -0.003443176 0.0075548813 -0.0060368963 -0.003039658 0.0015109293 -0.005962122 -0.007713847 0.0022375751 0.006391477 -0.003994841 -0.0033523422 0.0030541848 0.0005411096 -0.0066679455 0.0051201135 -0.0024622139 0.0027992688 0.0024630167 0.0069358572 0.006827049 0.005712062 -0.00647467 0.0009443443 -0.00075325556 0.0006852541 0.006971404 0.003726283 -0.0069722217 0.0076654833 -0.0006962456 0.00031132624 0.0038720015 -0.0048554298 -0.0003162846 0.0010748152 0.0055087917 0.0033444874 -0.0015148837 -0.0066151675 -0.003030438 0.0068586376 -0.007414952 0.0076928623 -0.0001201313 -0.0008831322 0.0075033084 0.007478589 0.0064620245 0.0070305374 -0.007800497 0.0058631226 -0.0073143877 -0.006025465 -0.006896971 0.0016856119 0.0056110825 -0.0049258173 -0.0021205507 -0.0018418729 -0.0034982562 -0.0010250118 0.0037937537 0.002900511 -0.002531413 -0.002900431 -0.0018282495 -0.0025222674 0.003087921 0.0076112524 0.0061359834 -0.0059059877 -0.005038062 -0.007134324 -0.004632894 0.0028400756 -0.0047025494 0.0013244767 0.006942611 0.0026062224 0.0009303782 0.0069709215 0.005010415 -0.001124613 -0.00485244 -0.0008254219 0.0056842156 0.0058441646 -0.0031507723 0.0077660643 0.0018764697 0.004006328 -0.0044288803 0.0034211185 0.000200551 -0.0074918177 0.003959382 -0.007038584 -0.0050541908 0.002177216 0.0072521884 -0.0016561858 0.0054522995 0.0039594267 0.0031783078 -0.0048387963 0.0039646793 -0.006490538 -0.0033725966
157 0.0042558163 -0.0063646883 0.0044762865 -0.002728559 2.081506e-05 -0.0057413112 -0.0048774667 -0.0025867075 0.0067212284 0.004177138 -0.0075761173 -0.0051352344 0.0026794113 -0.006654026 0.005199006 0.004808359 -0.007268917 0.006758265 0.0061261076 -0.0014008638 0.0013920628 -0.0044495594 0.004857879 0.0060171913 0.0031611305 -0.0069230516 0.0038637873 -0.002391087 -0.0017243121 0.0047698114 0.0014416389 0.003614938 -0.004904736 0.0040925853 -0.0027649347 -0.00029969402 0.0048608016 0.003185153 0.005837355 -0.0030605104 0.0027720463 0.005710019 -0.002567524 0.0044990145 -0.0073536634 0.006908281 0.0029323138 0.0041493233 0.0036315694 0.0035679322 -0.002585305 -0.0048517957 -0.0017832294 0.0010823105 -0.0022983085 -0.0066285357 -0.004913237 0.0065168347 0.0072982367 0.004656926 -0.0032057036 0.00054278784 -0.006700162 0.0052007996 0.00036548264 0.005762959 -0.0041977167 -0.0022243578 0.0022335704 0.0027029756 -0.005113365 -0.005754892 0.0015873797 -0.007039547 0.004522294 0.00427299 -0.0029827692 -0.004407119 -0.006505158 -0.0014817435 0.005452417 -0.0001636818 -0.0062086023 0.0069457777 -0.0066809654 0.0043436624 0.005053008 0.00076232664 -0.0067910645 0.004824469 -0.00613115 -0.0039201323 0.0075193644 -0.006470423 -0.005959807 -0.003828561 0.0027056187 0.0014956407 -0.0043425914 -0.0025596842 0.0067059007 0.007630937 0.0077458713 0.00081679225 0.0031546876 0.0010670722 0.0013068225 0.003779985 0.0017219055 0.00023479946 -0.002460027 -0.0050974544 0.006241791 -0.0046655964 0.002174493 -0.000722982 -0.0028506815 -0.0038604643 0.0025157966 -0.004576266 -0.005855309 -0.0020657051 0.0036635771 0.0047219507 -0.0011380259 0.005702043 -0.0059322435 -0.0036974791
88 -0.0061413087 -0.004724305 0.005703764 -0.007250551 -0.006759342 -0.0076676086 0.0071896967 -0.0020820964 0.00077917613 -0.004787119 -0.001979908 5.6691468e-05 -0.001953315 -0.005759066 -0.0048382357 0.0019806083 -0.0074174516 0.00089552253 -0.0015534032 0.0064673983 -0.0003107842 0.004854584 -0.00553659 -0.005912274 0.0043330155 0.00073418766 -0.0039768163 -0.0020779613 0.006852463 -0.007169869 -0.0028722752 0.00078318827 -0.00016881712 0.007432511 -0.0015143249 -0.0055432264 -0.0059990156 -0.007734794 -0.0061122254 -0.004713172 -0.0046460927 -0.0010978002 -0.00042279065 -0.0036838222 0.0016725902 0.003020212 0.0070548337 -0.003636526 0.0040066577 0.0056671426 -0.0029350538 -0.005808346 -0.0026083607 -0.005384356 0.00507454 0.00733402 0.006463187 -0.0066673215 0.00394357 0.003984371 0.0043974705 -0.0065036304 1.3686717e-05 -0.005332187 -0.006965911 0.0019485839 0.007757975 0.0050755683 -0.0055214185 0.0018255599 -0.0030496381 0.0077548902 -0.0068763234 0.0075978916 -0.005091952 -0.0054737106 0.0012707207 -0.0005255621 -0.0066516567 -0.00047850795 -0.00027993694 -0.00489622 0.0044897255 0.0024800617 0.0065628383 0.005780045 -0.0051885825 0.0037392918 0.004448222 0.004514249 0.0040672775 -0.0037360117 0.003371887 0.0010296497 5.4575503e-05 -0.0050438754 0.0011899881 0.0041131508 -0.0071961507 0.0067243073 0.0023381263 -3.113225e-05 -0.00262798 0.0002812706 0.0047533344 0.0037286617 -0.0046500694 0.006151315 -0.0004987288 -0.0063744746 0.0069287475 0.0039617643 0.0028337128 0.0061793216 -0.0058814734 -0.0045553558 -0.0015669242 -0.0032018386 -0.0012515709 -0.00045948848 -0.006550817 0.0014850739 0.0019988846 -0.0006573405 0.0038041063 0.0011446103 0.00467775 -0.0017470866
162 0.0066596605 -0.0012225825 0.00240455 -0.0029585883 0.004788732 0.00240409 0.00042544305 0.006841246 -0.006123014 0.0075897053 0.0006103944 -0.0018393863 -0.0032245908 -0.0071127545 -0.0017349273 0.002100844 0.005139312 0.00708618 -0.006834844 0.0070756916 -0.0069062673 0.002916228 0.006271489 -0.001959823 -0.006137129 -0.0065121874 0.0009009391 -0.00059518777 -0.007430775 0.002422098 0.0017620791 0.0034785066 0.003460141 0.002526313 -0.0076691695 0.0044799093 0.0033300426 -0.0060519166 -0.0016574059 0.00027672015 -0.00050105713 -0.0007552672 -0.0043289736 1.7903745e-05 0.0034535043 -0.0005318839 0.00062523596 0.0016356017 -0.0031052604 -0.0061467625 0.007162573 -0.007646134 -0.0019352883 -0.0009892918 -0.0059928764 0.001383923 0.0062058754 -0.0011846833 0.0063321423 0.00023013353 -0.0045095645 -0.0015486199 -0.00056713447 0.004886791 0.005563086 0.0048462544 -0.004682604 -0.005452182 0.004759785 0.0019342769 0.0041739233 0.00036300905 0.006145727 -0.0069371667 0.0077125803 -0.0064363442 -0.0013328232 0.0049078036 -0.0072119515 0.0033737123 -0.005450979 -0.0053465627 0.0017998926 0.0013562664 -0.0021782853 0.0061497763 -0.0054820534 0.00036255643 0.0068216175 0.0015820954 -0.005353458 0.002765337 -0.003929734 0.00046063028 0.00223393 0.005926652 0.0057672653 -0.0038234536 0.0074376203 -0.004286343 0.005958015 -0.0062364284 -0.006110359 -0.000868652 -0.0063616633 -0.0027090851 -0.00040179305 -2.9597431e-06 -0.0077824593 -0.005083561 -0.0057950392 -0.00030289963 0.004053671 -6.0899183e-05 0.007781407 -0.003036473 0.006296212 0.004754806 0.006454693 8.317083e-05 -0.0003358554 0.0014782604 -0.0077543817 0.007066259 -0.0018656701 0.0058899187 0.0015951078 0.0022652037
20 -0.0009709392 -0.007729633 0.001092976 0.0022545662 -0.007660322 -0.0030480772 -0.0018346198 -0.003952902 0.0030931756 0.0016446672 0.0033874866 -0.005060615 -0.0046897475 0.0036865938 0.0052961353 0.0043179784 0.0037474837 -0.005658863 0.0063773654 -0.005438026 -0.0059907585 0.006645078 -0.001930425 -0.007335229 -0.0024092551 0.004658103 -0.0022604149 0.0038580485 7.9032034e-05 0.0031763725 0.00092574395 -0.0072843395 -0.0028515384 0.0069035683 0.0012032595 -0.004602058 0.0054799356 0.005825121 0.0056601427 1.15558505e-05 -0.0071454197 -0.0027242824 0.004012447 -0.0050807167 0.0076122414 -0.0076331776 -0.0063507054 -0.0041517094 0.0047015827 -0.0059959404 0.006748015 -0.0077084955 0.0027298424 0.0025750212 4.25037e-05 0.0074557774 0.003992643 0.00022523664 0.003764497 0.005006533 0.0023490246 0.007349806 -0.0010459609 -0.0065508354 -0.0034969077 -0.0011651274 -0.005678231 -0.0012220573 0.0061989315 -0.0039254893 0.00398477 0.0033994429 -0.00054605864 0.0008398872 0.0044725146 -0.005188681 0.003044501 0.006965354 -0.0027451478 -0.0059486944 -0.0071888287 -0.0070362035 0.0030239448 0.0039974116 0.005499391 -0.0011348482 0.00075661764 0.0023843572 -0.007717414 -0.00735425 0.0035855751 -0.00656222 -0.0024825577 -0.0033673178 0.004620701 -0.002691945 0.0077986047 0.00043457 -0.0040214676 -0.002841618 0.0009826813 -0.0041940715 0.0057767704 0.0070496593 0.0033536777 -0.0057390984 -0.0046453997 3.9495528e-05 -0.0007958319 -0.0043176897 0.0061998405 0.0048727915 -0.0032686181 0.001861209 0.0040088054 0.001882745 0.0066944007 -0.0010087397 -0.0050992146 -0.00065171346 -0.00650212 0.0076903924 -0.006731853 -0.0011745673 -0.0022263024 0.0024604239 0.0038834866 -0.0064348225
143 -0.0034439415 0.00038411468 0.0031245518 0.0039972104 -0.001081923 -0.00048672967 -0.006114017 0.0035518259 -0.0059761256 0.0025665723 -0.0026780814 -0.0060954727 0.0053779837 -0.0003573168 -0.0074572414 -0.0073249787 0.00046181493 -0.006391518 0.0029205661 0.0027066711 0.0026196074 -0.0043770596 0.006237112 -0.007021252 0.005825689 -0.00049375556 -0.0011509359 0.0030970685 -0.0019441489 -0.0034345258 -0.0018883254 -0.004834367 -0.00027501024 -0.0042062886 0.0035971422 -0.0074517354 -0.0033997148 -0.007160321 -0.0075133834 -0.0005870033 -0.006315412 -0.004446907 0.0021686703 -0.0011253152 0.0024255365 0.0064571463 -0.007523656 0.0047537237 -0.0062079374 0.0051051136 0.005834706 0.0067034923 -0.0062121022 0.0026090145 -0.006126741 -0.00097336806 -0.004078334 -0.0066666286 0.0038547348 0.0034641605 -0.003170196 -0.006075328 0.002778463 -0.0030720849 -0.006928902 -0.0034279916 -0.0016969014 0.006841462 -0.005044114 0.005728429 0.004783526 -0.0038344823 -0.0013741031 -0.0019569527 0.002439566 -0.00035393052 -0.0021590702 -0.007066909 0.0050268993 -0.0075120237 -0.006758161 0.0010796692 0.0023229942 3.7048012e-06 0.00028914027 0.002022868 0.0014082585 0.0059127435 -0.0026924945 -0.0056510866 -0.006159516 0.0061871987 0.0015205257 -0.0045373887 0.0049931183 0.0066043586 0.0062082857 -0.0053343605 -0.0040167496 -0.0015705768 -0.0051700566 0.0036943927 0.0044253413 -0.004684314 0.005624419 -0.0059816837 0.004846018 -0.003613539 0.001532387 -0.0025557317 0.002648173 0.0060300548 -0.0010894556 -0.0038946774 -0.0066887904 0.0028417595 0.0033054817 0.0052322056 -0.0033513773 -0.0076038986 0.005329309 -0.003534956 0.0034529455 0.006292604 -0.0030803233 0.001276698 -0.0028040279 -0.0051669907
45 -0.0044408906 -0.00010671094 -0.005869746 -0.001559224 -0.0019436851 0.0052409675 0.0010654256 0.0045720283 0.002983844 -0.002747221 -0.003977714 0.007547885 0.005523747 -0.0070658065 0.004098268 0.006400807 0.0071814843 -0.0062927026 -0.0015727933 0.0008480456 0.0022721682 -0.0012671556 -0.0036757234 0.0050534513 0.0054160766 -0.00030459277 -0.004564954 -0.0034154393 -0.004022559 0.0033252332 0.00040135905 -0.001843486 -0.0070975833 -0.0011691079 0.005024489 0.004941404 0.0032996424 -0.0022467952 0.0070715696 0.00046951137 0.00088650174 0.0048241094 -0.0051511656 0.0051048417 0.0076518096 0.0028693452 0.0026815925 0.0032785516 -0.0015206877 -0.006325217 0.0011563227 0.00070672296 -0.0053103883 0.0015307739 0.0042530484 -0.0056077447 0.001962483 0.00606779 -0.0067353267 0.0027449727 -0.0066911 -0.006200826 0.0055398624 -0.0059104674 -0.0010691788 -0.006194284 -0.0061448384 -0.0055496916 0.00031715631 0.0014022514 -0.006176969 -0.006288342 -0.002484478 -0.0014253166 -0.0048206747 -0.003302168 0.0028180145 0.0023993477 0.0051520895 0.0033177212 -0.0006926935 0.0021618754 0.007070303 0.0014907625 0.0014216006 0.00087812543 -0.0072553884 0.0041811895 0.003940584 1.994893e-05 0.007197067 -0.0044672564 0.0025384035 -0.0061029587 -0.006984817 0.0015632529 0.0037069693 0.0047659334 -0.0067871753 0.0034008361 0.0018738322 0.00324684 -0.00052697025 0.0043310225 0.005696591 -0.006552292 -0.0077595823 0.0054803956 -0.00074372813 -0.0073239133 -0.0031920988 0.0009306595 0.006583292 -0.0013206713 -0.00079814903 -0.0057536457 -0.005978603 0.0011425503 -0.00036988966 -0.0060158074 0.00068744086 -0.0070222467 -0.0019351821 0.003294738 0.0008726679 0.0061177257 0.0051448233 -0.00092896447
27 0.0038722306 0.0047884695 0.0068216976 0.007092597 0.0038501322 0.003602704 0.005613303 -0.0012237448 -0.0044138264 0.0069281776 0.00094574504 -0.003949005 -0.0006785076 -0.004085019 0.0071229246 0.0026544724 0.0033449195 0.0050818175 0.0063860714 -0.003735086 -0.004956659 -0.002911279 -0.0029005408 -0.0073783547 -0.00047747977 -0.0063301045 0.007633291 -0.0026604775 -0.0049340446 -0.0063319188 -0.002782805 -0.0074643996 0.0006120987 0.0042276606 -0.0022460036 0.005989982 -0.0014644153 -0.0056791753 -0.002441099 -0.002453521 -0.005543761 -0.007564405 -0.0031771585 -0.0012410581 0.003909504 -0.0059461314 -0.0038861893 0.0010638516 -0.0013090074 0.0027716476 -0.0014644358 0.0033774786 0.006243529 -0.006182708 0.0029425137 0.004674956 -0.0004506968 0.005286442 -0.0042315666 -0.0035751164 -0.0061311256 0.007399179 -0.007349089 -0.00253883 -0.00033882074 -0.0037882403 0.0074000824 -0.0053386427 -0.0062648375 0.0072224494 -0.006483875 0.0075704195 -0.0032012742 0.004427526 -0.0003234446 -0.003122514 -0.0058632996 -0.0049012993 0.0053466186 0.0049389936 0.00012847036 0.004993541 0.0030117016 0.0029954184 0.00209203 -0.007591741 0.007235067 -0.0064098407 -0.00234887 0.0011141337 0.0040999055 -0.007195387 0.0013230927 0.0049675778 -0.0068419594 0.0074650627 -0.004076397 0.0074621662 -0.005098887 0.0051507205 0.0073145255 -0.007208945 0.00022697449 -0.006039975 0.0063505042 0.0074828044 -0.004728446 0.00065849535 -0.0017504487 -0.0060596336 0.0006402377 -0.007737521 0.002042165 -0.0060114544 0.0044452865 0.005915584 -0.0019955337 -0.003135331 -0.007507516 0.0038426407 0.0022742953 0.0068338476 0.0025783572 -0.002267193 0.0027797297 0.006739944 0.0072131865 0.005972266
72 -0.0066828895 -0.005912224 0.0056727137 -0.005815128 0.0025396943 0.0062692 -0.0025054812 0.0052806586 -0.006370863 0.005069101 0.004368676 0.0026071146 -0.0063476283 0.0071568433 0.0064284187 -0.0012220517 0.003208924 0.004980013 -0.001359161 0.0042871106 -0.003151739 -0.0009961072 -0.00094356947 -0.0032512546 -0.00055329315 -0.006017234 0.0028463397 0.0070765633 0.0037357453 0.004987294 -0.0037000477 0.003798468 -0.0052209143 -0.0038831942 0.007711645 0.005001709 -0.003896905 -0.004746355 0.0056465548 0.002113944 0.0051462725 -0.005279178 -0.00075873174 -0.00073895603 -0.00017166696 0.0017354526 -0.005274214 0.0034242775 -0.0021457337 0.006522374 -0.0008059181 0.0071536545 -0.00065572374 0.004071027 -0.0059335586 -0.007109886 -0.00026745163 -0.0017648526 0.0077882037 0.0035368204 -0.0043504145 0.0057539865 0.00046119094 -0.007462885 0.004466554 -0.0015704259 -0.0073591247 0.006801352 0.005662797 0.0066815186 0.0002835747 0.006002266 0.004051741 -0.0054198075 0.0072543994 -0.0027809814 -0.0076120347 0.006687019 -0.004146699 0.006560277 -0.006135436 0.0072453227 -0.004621029 0.0031240694 0.0076438207 0.0032829326 -0.0016617533 -0.0038712863 -0.007594293 0.0032861661 0.0058092903 -0.0037001744 0.0046257544 0.0053442586 -0.007044472 0.0016391035 -0.0053434204 -0.0033827238 0.0006694086 -0.0054913815 -0.0032334048 -0.0058692303 -0.005490415 -0.005420422 0.0077455696 0.0065022763 -0.0001441054 -0.0020506624 0.004881732 0.0010462422 -0.007026475 -0.005515335 0.00080314465 0.006198613 0.0024988055 0.0076875314 0.005118817 0.00023045205 0.006759353 0.00703107 0.006296212 0.0073455255 -0.0073301736 0.0027446114 -0.0061038416 -0.005579181 -0.006583011 0.0025019515
30 -8.214265e-06 -0.0049620364 0.0043326076 0.0061751716 0.0033572167 0.0061194003 -0.0033421442 -0.0049914625 0.0031087436 -0.0022855774 -0.0056056287 0.0028675795 -0.0025956482 -0.0040611736 0.002053883 0.0053545777 0.005001072 0.00011643581 0.0067578573 0.002299348 0.005131401 -0.00070278905 0.0016476754 0.0048154294 -0.00765129 0.0045536887 0.0010054782 0.0047537163 -0.0011293739 -0.0021067932 -0.0043603126 -0.002223745 -0.0020085778 -0.0040211566 0.00075830333 0.006242512 0.004014358 -0.005976625 -0.0057962034 -0.0022605788 0.0030524712 -0.0072797406 0.004782606 0.0024348833 -0.0022044405 0.007182883 0.0062977206 0.0005584117 0.0037720017 -0.007267868 -0.006865835 -0.002301965 0.00724712 0.0025268327 0.004384836 -0.0052895714 0.003316136 0.0003080014 -0.00070993043 -0.0025366284 0.0038788822 -0.0071094334 0.0039978456 0.0044256225 -0.0019003022 -0.003281638 -0.005775124 -0.0049797874 -0.003989931 0.002459813 -0.0037467591 -0.0009364933 -0.0069711916 -0.0027421135 -0.00061173923 -0.0062059257 0.0025401078 0.0076202285 0.003429871 0.0014591739 -0.0038029198 -0.00088598765 0.0017531179 0.0013573226 0.0068848915 -0.00072945654 0.0054641888 0.004519809 0.0023755655 0.0057207253 -0.0038624723 -0.0030917935 0.005449461 0.006728567 0.0024647266 -0.003199501 0.00596896 0.0021269452 -0.00017875433 0.0069245454 0.0033645444 0.0030870643 -7.1581453e-06 -0.006972188 -0.0024375431 0.0019023567 -0.004381096 0.0055639856 0.0058172066 -0.0069909133 -0.0042049047 -0.0046755895 -0.00051356666 -0.0014046337 -0.0015962478 -0.0017258171 0.0027887914 0.007511528 -0.0035865027 -0.0064712595 0.002923103 -0.0050469767 0.005223356 0.0020814035 -0.0061425343 -0.0060589835 -0.007226322 0.0018375628
151 0.0021397527 0.002047021 0.00013612397 0.0008153003 0.0024007726 -0.0012197979 -0.006275717 -0.0004864484 0.0028957613 -0.0020264834 -0.001665445 -0.0017580464 0.005678801 -0.002375329 0.0073777903 -0.0030325167 -0.007790476 -0.005117908 -0.0034162644 0.00097249076 0.0040026736 0.0016635507 0.007065544 0.0007036887 0.0044014677 0.0001258459 -0.0016539916 0.0048579145 0.0015775841 0.0064528864 -0.006482441 -0.0068375934 -0.00042261928 -0.0014787726 -0.0018341728 -0.00046509132 -0.0039614644 -0.0062657893 0.006448768 -0.0026102774 -0.0022213086 -0.0012853146 -0.00096153095 -0.007179031 -0.0014056768 -0.001053147 0.006756479 -0.0062190965 -0.0037107058 -0.0014734808 0.0022542868 -0.0047031883 -0.0043339506 -0.0062227715 0.0043219365 -0.006810231 -0.0025376454 0.00022955425 0.0011320692 -0.0077665057 0.006765552 -0.0016057603 0.00027520768 -0.006869685 -0.0063811988 0.0029457808 0.003134828 0.0023321677 0.0045670103 -0.005414188 -0.0009732377 -0.0021284446 -0.0010988731 0.0034980308 0.0010715425 -0.0058120023 0.002530098 0.0048878603 -0.0047677085 0.0025232062 -0.0033688322 0.0068959054 0.0032267235 0.0015913937 -0.0007964 -0.0071157776 0.0067614764 -0.0014199317 0.0057616364 0.0029470585 -0.006452156 -0.0004817862 0.0021450985 -0.0020039286 0.0076034237 -0.0038969927 -0.005597377 0.0029669981 -0.0027888864 -0.005381437 0.0015897732 0.0041178446 -0.0042949915 -0.0034222286 -0.005606672 0.0012104996 -0.0037160106 0.0065902397 0.00056420267 0.0014557 -0.0026072692 0.005764991 -0.0005159192 -0.006416006 -0.005736029 0.00016112626 0.0060439557 0.0024118386 -0.004157994 -0.005275894 -0.0076988153 0.0030648336 -0.00743613 0.002487816 0.0012989696 -0.00064199045 -0.0077758767 0.004597055
128 -6.988831e-05 -0.0077625085 -0.0058855936 0.006694382 0.0014770236 -0.0063911136 -0.0006395597 0.004222797 -0.0072804987 -0.0053710695 -0.00079977326 -0.00762837 0.0003752429 0.001520142 0.0066722482 0.0007687267 0.0010177735 0.0038120858 -0.003352549 0.005649071 0.00012532994 -0.00053038634 -0.007576326 0.0003955923 0.0053039864 0.0013757981 -0.006320808 -0.0026008245 -0.0047169514 0.004703166 -0.0050527956 0.004106952 -0.0041076317 -0.0053316485 -0.005926447 0.002977511 -0.0068756044 -0.0044611115 -0.0055162013 -0.003372686 -0.0031520445 0.0011605769 0.0050664674 -0.00093499944 -0.0042868517 0.0012171082 0.0044032745 -0.004118778 -0.004171565 0.0040389784 0.004895199 -0.006070407 0.0064162426 -0.007691862 -0.005794663 -0.004593538 0.0014176946 4.3766573e-05 0.0027088579 0.0054795127 0.00374417 -0.002502462 -0.0050269123 -0.006445391 -0.0003758669 0.0076024327 -0.0059955046 0.0028508268 0.00342587 -0.003389448 -0.0054420177 -0.0042525623 -0.003935868 -0.0054682083 0.0046372768 -0.006069435 -0.0022922605 0.003421422 0.00014053285 -0.0060045626 -0.003662346 0.0028063208 0.001986105 -0.0015292503 -0.0005654115 0.0019918457 0.001112055 -0.0020655561 0.004172908 -0.0059837922 0.004974216 -0.007806614 -0.0017608944 0.0052207746 -0.002814915 0.0051049795 0.004243888 -0.0057786647 -0.0001896862 -0.0035118964 -0.006297469 -0.00069675036 0.0049914345 0.00682546 -0.0039393697 -0.0020765383 -0.0047170147 0.0009076521 0.0020814613 -0.007685775 0.0018841289 -0.006885564 0.0003114678 0.0037187971 -0.0041063167 0.00020149909 -0.0017050114 -0.0067869257 -0.001882758 0.0034818817 -0.006699864 -0.004638495 -0.000426678 0.00627923 0.0010985453 0.0076256357 -0.0059924982 0.0070249196
66 -0.0036944468 -0.00496532 -0.0061222166 0.0014418699 -0.002152769 0.0059003606 -0.00040168874 0.0019605253 0.004656557 -0.006756421 -0.0016083494 -0.0037353672 -0.0067732353 0.0026697665 0.0018857904 -0.0018767118 -0.0014958233 -0.0052585695 -0.0025473405 0.0010238942 0.006045582 0.0055211987 -0.002807619 0.0028190184 -0.0020151455 -0.0036874097 -0.0028319545 -0.004802063 0.0027354378 -0.006085919 -0.0058657564 -0.0035184845 0.005779892 0.0014275387 0.0042648166 0.0064190086 -0.004870871 -0.003614584 0.006000288 0.0038598124 0.003641991 0.0070253573 0.0068844054 -0.0020907223 0.00081203505 0.004282633 0.0069465116 0.007693123 -0.0064570718 -0.0040042624 0.003899144 0.000746835 0.00012748875 0.0058627333 0.0050025694 -0.0056539867 -0.0020264722 -0.0066279173 0.0055031423 0.0021613538 -0.0017411038 0.0014685802 0.0059874617 0.006352784 0.0048236027 0.002472898 0.0012102835 0.006358929 0.0010283832 0.00034566224 -0.007463392 0.001971949 -0.0066081323 0.005051514 -0.004522657 -0.0013669915 0.0007622745 -0.0014695693 -0.0071275327 0.0031122547 -0.0051336493 -0.0068683326 0.0030559935 -0.0005935449 0.005086392 -0.0054797344 0.0006093774 -0.0005362276 0.004486846 -0.007602079 0.0046330895 -0.007015338 -0.006081011 0.00056856684 -0.0020810124 -0.0030407477 -0.0041431114 0.0032115467 -0.0072849784 0.0009263512 0.0032874085 -0.00021941774 -0.00038852543 0.0055995323 -0.0074752457 -0.007041339 0.0034696646 0.006809842 -0.006090138 -0.006491773 -0.00050167553 -0.007059304 0.0016567018 0.0072151143 -0.0047779027 -0.0052785557 0.0069628973 -0.0005936008 -0.0029250365 -0.0021179244 -0.006836904 -0.0036152732 -0.0032444783 0.00019424781 0.0005394947 0.0059573427 0.0053336155 -0.0011825673
106 -0.007794779 0.002026895 -0.004775366 0.0071155243 0.002972439 -0.00078587234 0.0051602945 -0.0027289353 -0.0028797667 -0.0002579745 0.006573554 0.0046382677 0.0012279712 0.0029453095 -0.0023302585 0.007233985 -0.0055716354 -0.0025294293 -0.004140718 0.006815415 -0.002441449 -0.0018645935 0.00558454 -0.0075826608 -0.0022662878 0.0022561736 -0.004893074 0.0068447273 0.00091212057 -0.004085619 0.0038514659 0.006235568 0.0007251967 0.0053261817 -0.0053330194 -0.0028272476 0.0077632703 0.0044344105 0.0012465548 -0.0027294885 0.0034504198 0.001978496 0.0065298583 -1.2349337e-06 0.0067163445 -0.0045773666 -0.005942149 -0.0010957718 0.0023238007 -0.0015493091 0.0046001375 -0.006572094 -0.0070360135 0.0059212465 0.0049497187 -0.0031918902 -0.0031408537 -0.0027773026 -4.048273e-05 0.007089881 0.0007436611 -0.0016008168 -0.0026686583 -0.0016303677 -0.007183874 0.005334001 -0.007056903 -0.002414517 -0.0055621304 0.0070790853 0.0045248773 -0.00037412345 0.0030614901 -0.0019003805 0.0076633003 -0.0028334 0.0037964843 -0.0029645711 0.007461708 0.0074197855 0.0048683323 -0.00019383617 -0.00131738 -0.0067628864 0.007292701 -0.0065955576 -0.00512203 0.0043601636 -0.0017834008 0.0062308256 -0.0061462577 0.0071847998 0.0017587263 -0.006684473 0.0030815527 -0.0038715824 0.004987795 0.0051458944 -0.006844932 0.0050494373 0.0041100327 0.0050649196 -0.0055118278 -0.005123174 -0.006923314 0.00411178 -0.0031397194 0.0037499238 0.0037462804 0.006315008 0.001754472 -0.00084653683 0.0011426434 0.0023277812 -0.0068518184 -0.004666446 -0.00074131973 0.0038183685 -0.00012618676 -0.0075509436 -0.0004917737 0.0055832304 0.0049483757 0.0027095117 -0.0035928097 -0.0029068515 -0.0016237088 -0.004689548
148 -0.006716583 -0.00043908134 0.0014082324 0.0037733503 0.0028045923 0.006683495 -0.005286608 0.0072476305 -0.0026105344 0.00063361786 -0.0033294596 -0.0031615794 -0.0011620484 -0.005866833 0.0070065353 0.0035621393 -0.0017661098 0.0014959723 0.0061048195 -0.0043867845 0.0029803533 0.00055110827 0.0022644158 -0.0016696397 -0.007714184 0.0045956466 -0.0011110399 -0.006498143 0.00055693276 -0.0048215613 0.0059980787 -0.0049976613 -0.0012868214 -0.0003087148 -0.0033512395 -0.0026736576 0.0057382584 0.0014466383 -0.0073264968 -0.0002217479 -0.007446561 -0.002469536 0.0038741473 0.0028907042 -0.0044846125 0.0011393651 0.004538972 -0.005857235 -0.002640957 -0.0019261055 -0.006949283 0.0016423967 0.0050845426 0.0019091107 0.0018561147 -0.00063131936 -0.00063197874 -0.0048980657 -0.00038548931 0.0051506665 0.0023208074 0.000426203 0.006117679 0.0021866728 -0.0057985634 0.0057088584 0.0074630715 -0.0070950035 0.0056455936 -0.0059320554 -0.00028041378 0.0036020838 -0.004486941 -0.0062147845 -0.0056933314 -0.007729726 -0.005208874 0.0074635632 0.0022854637 -0.007081328 0.006645212 0.005635863 0.0061412286 0.007507831 -0.0067742616 -0.0017153267 0.0016381107 0.0018882845 0.003776338 -0.006037675 0.0037618913 0.0077618267 -0.0070029795 0.006167151 0.0025065783 -0.0032490268 -0.0012010057 -0.006650595 -0.0058468115 0.004310522 -0.0024457984 0.007804932 -0.006265389 -0.0055063628 0.004799964 0.006157141 0.0028799213 0.005654799 0.0050690006 -0.004513353 0.006799573 -0.004950039 -0.0022488032 -0.0046743397 0.004757302 -0.0034262352 0.0024029445 -0.0012376998 -0.00093463063 -0.004568588 -0.004506016 -0.0027988795 0.00024791062 0.0011476111 -0.0025803093 0.0015153959 -0.0044293217 0.007801788
64 -0.0006407555 -0.005428884 -0.0014517605 0.006200267 -0.0008597672 -0.0040264595 -0.0062860046 -0.004585702 -0.002497226 0.006031437 -0.005643543 0.0011250768 -5.9582293e-05 0.0030771364 -0.006206615 0.0062113106 -0.0021788497 0.004140312 -0.0074270573 0.003975723 -0.006444514 -0.0025404524 -0.0009275619 -0.0028454736 -0.0005721636 1.8337741e-05 0.0035231896 -0.0017510112 -0.0031316262 -0.0048226416 0.006503381 0.0036037974 0.0071106907 0.004284013 -0.0036024824 0.0064677466 -0.0054364 0.0023784023 -0.0026215967 0.00020921044 0.0029375702 -0.0022045355 -0.0034533814 -0.0015228838 0.00040653907 0.005043015 -0.0045743883 0.0036457237 -0.0028977431 -0.0062078536 -0.0043787844 0.0014499128 0.0068659764 0.006151337 0.007169498 0.0053827837 -0.0023173746 -0.0018914752 0.0068872888 0.0050634034 0.0046971776 0.005374944 0.001266798 0.0018707756 -0.006411964 0.0058880392 0.007378334 -0.0055325925 0.00090899505 0.0068290215 0.0028554946 0.0054301433 0.005960621 -0.0014987923 0.0069245473 0.004677035 -0.0014821403 4.8018992e-05 0.0075841676 0.004547909 -0.00522328 -0.0027269889 -0.0027257018 0.0024384558 0.0008633081 -0.006721111 0.0016961098 0.007514665 0.0018404741 0.0033470634 0.0015330072 0.006343374 0.006935671 0.0024688393 -0.001905283 0.0028164275 -0.00602711 0.006262075 -0.0031313542 0.0077512786 -0.00749108 -0.001999883 0.006942505 -0.0031851977 -0.001530245 0.0039334893 0.007254049 -0.00028547645 -0.005311677 0.00780474 -0.0074420627 0.0009731371 0.0043483432 -0.0061185807 -0.0043996368 -0.0071256105 -5.6061894e-05 0.003908092 -0.0064262114 -0.0024073478 0.0065547302 -0.0034854766 0.0024806783 0.002745891 -0.002794221 -0.0040419027 0.006503856 -0.0019678306
82 0.0070007537 -0.0018895846 0.0023830105 0.0043716226 0.00044034235 0.0034335945 -0.004658906 0.006573098 -0.0012847465 -0.0034494102 0.003992345 0.007751677 -0.004422672 0.0006562155 0.0033882298 -0.0021483954 0.0004999321 0.0068924725 0.0060326643 -0.0050443877 -0.002505267 0.007201679 -0.00024941005 -0.0074699037 -0.0005603153 -0.005318513 0.0007234607 0.00064099394 -0.003435621 -0.0035849381 0.006872095 0.0035812184 0.0020125583 0.001440974 0.0064291917 -0.0039015133 0.004768688 -0.00077039376 -0.0059819426 -0.0075743925 -0.0013095122 0.006341627 0.0017240066 -0.00701442 0.0009559095 -0.0028316472 -0.0031705108 0.00635146 0.0045488924 0.0002814997 0.0019144043 0.0007036701 -0.0077521 0.0023363717 0.0056117717 0.0031163432 0.0019310378 -0.0027716272 0.0018283594 -0.0059629846 0.0032916032 0.0018720385 -0.00031976216 -0.00046728365 0.0020573493 0.0017368011 0.0011555348 0.007133577 0.0027594045 0.0010882504 -0.0022920128 -0.0047415514 -0.007275764 -0.0025469735 0.0033979565 0.005918285 0.0004965756 -0.0037347097 0.0028120428 -0.0030469373 -0.0005932823 0.0069246404 0.00638102 -0.00032690167 -0.004617678 0.0028853044 0.007665772 0.0067729186 -0.0014906544 0.005584432 0.0072428063 -0.0074675772 0.0069418345 1.7311424e-05 -0.0040590316 0.0028747804 0.007003581 -0.0056575295 0.0053679813 -0.005022621 -0.0060821585 0.004301006 -0.0035719369 0.0037207752 0.0057568345 0.0075410213 0.0044618975 -0.006926175 0.0025336929 -0.007023569 -0.00028771162 0.00764212 -0.003995303 0.003201481 -0.0044786073 -0.006286908 0.0062619317 0.002535263 0.005763065 0.0022914838 0.00090934336 0.0029082336 -0.006579919 0.0051498134 -0.0035042763 0.003602337 -0.004267825 0.00081374124
26 0.0031398311 -0.0019377973 -0.005883217 -0.004715953 -0.0077657793 0.00756572 -0.0034300778 -0.0008244999 -0.0070485305 -0.003573954 -0.0038185716 0.002357347 0.0044184364 0.0027340576 0.007700624 0.0014803447 0.007715607 0.0059024394 0.0021588411 0.0016749874 -0.0058702193 -0.001845466 0.004406469 -0.0063576344 0.0017665792 -0.0059267636 0.007538015 -9.710714e-05 0.00071472116 -0.0037329383 0.004779931 -0.0055675767 -0.005789345 0.005170513 -0.0026346967 -0.00071458146 0.0041867867 0.0035702605 0.0048500877 0.0054904 0.004387811 -0.006967837 0.0040191617 0.007129157 -0.0031299703 0.00084500015 -0.0025618821 -0.0026585497 0.006791638 -0.00021861494 0.0026620794 -0.004322538 0.004510913 -0.0026210155 -0.003881896 0.0017123967 0.007594947 -0.0047899727 0.00279212 -0.00077562593 -0.00561798 -0.0033832528 -0.006421346 0.004367143 -0.002150545 -0.0040620025 0.00077969953 0.0035851095 0.0074203964 -0.0076056346 -0.00021543726 -0.00096068904 -0.0021094326 -0.00041408278 0.0063515063 -0.0014661103 0.0072924476 0.00029535405 -0.0008317437 0.0053942185 0.005423935 0.00035852753 -0.00023663603 0.0049554035 -0.0030034073 0.0035885442 -6.642379e-05 -0.004748469 0.0050342064 -0.0031509958 0.0017317533 -0.0053483527 0.0020990223 0.004356358 0.003993392 -0.006307712 -0.0046154186 0.0055693164 0.0024340637 0.0008584503 -0.0048339497 -0.0010806732 -0.007206738 0.0009822864 -0.0035692938 0.0005900245 0.003504198 0.0018684305 -0.0055617075 0.00066461414 -0.0052499454 -0.003030872 0.0014840495 0.006228365 -0.0050870255 0.0018252358 0.0063626394 0.007741263 0.0048176534 -0.0057724006 0.003016645 0.006896712 0.003240414 0.0019654185 -0.00124228 0.0027955752 0.0032448396 0.0068939663
121 -0.002977565 -0.0068365037 0.0050803926 -0.0048589166 -0.00047216937 0.0011042636 -0.0009288527 -0.0031583402 0.00067291595 -0.007555628 0.0010908898 -0.0032617375 -0.004526805 0.0029784758 0.0011358596 0.0028511677 0.0007013455 -0.0074320734 0.007797662 -0.0027597323 -0.0017132182 0.0055795237 6.295368e-05 0.002386678 0.0017640777 0.0018621944 0.0052830297 0.007402707 -0.00043687224 -0.0026769266 0.0035599805 -0.0065119006 0.0066161975 0.0018754303 0.004687028 0.002189586 -0.0010378845 0.000751419 -0.003746558 0.0071000233 0.0039313473 0.0028201006 -0.003913544 -0.0067530945 0.006199306 0.0023068693 -0.0033195373 -0.0067736376 -0.0030966308 0.001100501 -0.00717951 4.1654333e-05 0.0021878257 -0.0077673867 -0.00011540763 -0.0047419146 -0.0028184634 -0.001272751 -0.007794384 -0.0028223675 -0.005486833 -0.0057355985 0.0012438074 0.0018255282 0.0072560124 0.0069256034 -0.0050120708 -0.0072014965 0.006164521 0.004228782 0.00541462 -0.0022967868 -0.0040852856 -0.0035687983 -0.0065109283 0.0045908242 -0.0026997905 0.00674518 -0.004440833 0.007525038 -0.0035172626 0.0067679435 -0.0042260997 -0.005866023 0.005985705 -0.007636033 -0.0068605915 0.003868129 -0.007618908 0.0041258875 0.0028536692 -0.0054843593 0.002459105 0.0011359602 0.006751694 0.0022514537 -0.004002031 -0.00183676 0.005351614 -0.0051706675 0.007261658 -0.002501564 -0.0036318656 -0.0034122448 0.002408553 -0.007692514 0.0025170986 -0.003504498 0.0075530373 -0.0039275642 -0.0062602945 0.002744345 0.007005183 0.0021464452 -0.0017719921 0.0027441364 -0.0069695357 -0.0032346677 -0.0034274291 0.0014777146 -0.0049282014 -0.0059306417 -0.0051021986 0.004133323 0.0021469146 0.006874105 0.0018131994 0.0041419677
